-0.697494996631866, -0.4380244396430144, -0.5670978685402573
-0.6973099609964425, -0.43820783088481746, -0.5671372550490101
-0.6967199127612856, -0.43879254963265774, -0.5672628982577517
-0.6948577665209539, -0.4406395088589986, -0.5676585500906348
-0.689253356117301, -0.4462021159550538, -0.5688472580527709
-0.6744990862958552, -0.4608533445924734, -0.5719730203518066
-0.6452017660393946, -0.48995486228901974, -0.5781753190090644
-0.60775736477088, -0.527155392638778, -0.5860990164292976
-0.579040340988388, -0.5556875982412419, -0.5921744119338266
-0.5649008246853909, -0.5697355109786926, -0.5951657610640254
-0.5596742124524321, -0.5749259296239356, -0.596272071075777
-0.5579920903454076, -0.5765913139830195, -0.596628231645006
-0.5574764609954294, -0.5770889721803608, -0.5967340619735269
-0.5573217464397943, -0.5771994197600863, -0.5967470971156146
-0.557289940142237, -0.57708301012449, -0.596665312863543
-0.5573548722502921, -0.5764636993294499, -0.5962803421209252
-0.5576947213264366, -0.5739531555494496, -0.5946858813867745
-0.5590936332837174, -0.5640501943740176, -0.5883111605120709
-0.5643248080062453, -0.5275212820898135, -0.5646538186141242
-0.5806815130255436, -0.4139809936492161, -0.4909103633925193
-0.6175933488407773, -0.15861529388074222, -0.32477717829698216
-0.6688492539593626, 0.19517085649688087, -0.09435088939656852
-0.7086760011349937, 0.46964443548792445, 0.08455166058560236
-0.7267546797777761, 0.5941246210813623, 0.16572210696885692
-0.7324936327600413, 0.6336228295233425, 0.19148760471007034
-0.734047018650596, 0.6443278393834695, 0.19847748640503135
-0.7344435447346708, 0.647104880990417, 0.20029801824555057
-0.7345329297066218, 0.647831237863954, 0.20078309625118065
-0.7345271024612458, 0.6480441616226984, 0.20093336440123774
-0.7344546366440237, 0.6481639030807594, 0.20100841522432777
-0.734247824011058, 0.6483792145268832, 0.20107232659675972
-0.7336701759982024, 0.6489813112016645, 0.2011107347253004
-0.7320740094907793, 0.6507093335570473, 0.20099226359826508
-0.7281186529575617, 0.6551140321865542, 0.200334304683199
-0.7205874389656468, 0.6636761579305535, 0.19857265279160186
-0.7111588797789098, 0.6745842742214481, 0.19582094389179655
-0.7039454506282684, 0.6830748318767967, 0.19329621045418155
-0.7003808511640961, 0.687355654489346, 0.19180240536585336
-0.6990622076248978, 0.6889838492562426, 0.19111976019466154
-0.6986406858554636, 0.6895267795530823, 0.19083237061402764
-0.6985162196961677, 0.6896954205828413, 0.1907080715003736
-0.6984901376196561, 0.6897224977358039, 0.19064805321552153
-0.6985233205059164, 0.6896225492018977, 0.1906052131008242
-0.6986904240902382, 0.6891674424925931, 0.1905282720096433
-0.6993508667533981, 0.687378051655171, 0.19026886450610242
-0.7018994070890792, 0.6804854191415376, 0.18927604416991184
-0.7112074678293651, 0.6553447063487566, 0.18562253006416166
-0.7401307299332892, 0.5773033297844163, 0.17418687523917217
-0.8041578016953446, 0.4047241410817449, 0.14867728110787476
-0.8889304237678411, 0.17656301746805372, 0.11453952212979554
-0.9517653333714234, 0.007871584193070998, 0.08877721025693491
-0.9799157957235768, -0.0673444057525552, 0.07684783294978055
-0.9889635469465414, -0.09128992689599513, 0.0727636878232228
-0.991457853445434, -0.09776223305243684, 0.07149119534909766
-0.9921273469489081, -0.09944197904981973, 0.07106737274758256
-0.9923126393038681, -0.09992363929851349, 0.07091169932765565
-0.9923511498017114, -0.10017744626446569, 0.07087837484278056
-0.9922983567412439, -0.10060111143178112, 0.0709811666306905
-0.9920744658376097, -0.10175596336507493, 0.07139680329850627
-0.9913920035336962, -0.10507630839641716, 0.07266809670534381
-0.9895479404754921, -0.1139633425574601, 0.0761079241084498
-0.9854553328686613, -0.1336622521136146, 0.08374350572726148
-0.978969249425225, -0.16488269838165237, 0.09584415688692265
-0.9723942786479159, -0.19652875591635965, 0.10811088397856775
-0.9681275150576364, -0.21705840938667587, 0.11607178686227214
-0.9661413704405025, -0.2266079007146954, 0.1197768410814724
-0.9653691623157493, -0.23030625706570626, 0.12121416768781071
-0.9650779775053108, -0.23166013987801715, 0.12174681328283755
-0.9649303305342976, -0.23223500893224724, 0.12199133518377592
-0.9647415955671828, -0.23274398069691227, 0.1222522225844182
-0.9642632767998756, -0.23385079543965184, 0.1228714267762072
-0.9628752468411226, -0.2369888309013193, 0.12465111809892024
-0.9590515656221132, -0.24561006894861837, 0.1295478254441505
-0.9501780073751571, -0.2656122984250229, 0.1409094871708848
-0.9348916860756101, -0.30007057077404137, 0.1604810526260704
-0.9171546626506601, -0.3400547927045233, 0.18318958583525816
-0.9035608521528443, -0.37069979108583256, 0.20059280950724342
-0.896184081748056, -0.387329486271743, 0.21003538801509528
-0.8929974636554089, -0.3945128905972453, 0.21411108282175026
-0.8917776932384264, -0.3972619893366232, 0.215662212615321
-0.8913304452480891, -0.39826873512723593, 0.2162037718788074
-0.8911554994566995, -0.3986591879614077, 0.21632520310993236
-0.8910417868991665, -0.39890348198699216, 0.21610576402377538
-0.8908227322948378, -0.3993571360507792, 0.21506748431130426
-0.8901615159944978, -0.40071600662562307, 0.21143767165761362
-0.8883012380517668, -0.4045217587881505, 0.20058037234693568
-0.884063377076386, -0.41311376953979095, 0.17378983221720712
-0.8767104544427331, -0.4277592241871488, 0.12095211896869247
-0.8675013130756374, -0.44545043695751374, 0.03931953037423187
-0.8600899019081568, -0.4583754876043922, -0.05718436160324973
-0.8583042223764632, -0.45885844331907155, -0.14139073369855717
-0.8629584483728749, -0.4457737272909817, -0.1947449363899983
-0.8712338367614971, -0.42542662035354206, -0.2216967238184962
-0.8793105552051935, -0.40611263957149957, -0.235228720072796
-0.885047282019612, -0.3924905720102739, -0.24258527543178138
-0.8883813102740599, -0.38458815967736293, -0.24652685818157138
-0.8901420839297983, -0.38041685731381614, -0.2485592980156723
-0.8910592917390954, -0.37824433938738894, -0.24960970875564928
-0.8915466659003619, -0.3770900015230371, -0.2501663128688621
-0.8918115823646972, -0.37646256194003413, -0.250468566295889
-0.697456574897769, -0.43799450758770686, -0.5671423235959716
-0.6972693067683606, -0.4381792442241778, -0.5671826482680281
-0.6966725763086358, -0.43876767083596185, -0.5673112705714841
-0.6947934598200469, -0.4406260549589842, -0.5677134228297595
-0.6891543244268327, -0.4462157261953245, -0.5689135069191659
-0.6743686723028165, -0.4608937779101954, -0.5720485492365714
-0.6451322588577113, -0.48994378479093753, -0.5782341627085236
-0.6078294039882629, -0.5270266589023652, -0.5861171781588863
-0.5791542995316421, -0.5555380939524135, -0.5921736308565297
-0.5649655363554457, -0.5696438132255521, -0.5951713065719006
-0.5596938859249085, -0.5748785636815441, -0.5962882228151631
-0.5579884771429426, -0.576561072479789, -0.596653890461197
-0.5574601808243211, -0.5770603276640283, -0.5967702692913697
-0.5572949606731732, -0.5771632588037894, -0.5967976730002206
-0.5572501628256016, -0.5770297950914635, -0.596736724421687
-0.5572963591612125, -0.5763759384517481, -0.5963808944807599
-0.5576089542121918, -0.5737905402254593, -0.5948214945269331
-0.5589692471749801, -0.5637294231885651, -0.5884794485910818
-0.5641332938517318, -0.5270171371832394, -0.564909231718386
-0.5802999681594487, -0.414019408705908, -0.4917636451909637
-0.6167807420679927, -0.16127921946628024, -0.3274460860158326
-0.6677438266674658, 0.1898522214249785, -0.09853330511035124
-0.7078830064765204, 0.4654021353513904, 0.08142649895464092
-0.7264051169108438, 0.5922430626035824, 0.16436415409904712
-0.732363644617144, 0.6329791350626324, 0.19103436313932393
-0.7339903125968613, 0.644122410603346, 0.1983514647390303
-0.7344030904966938, 0.6470451010891988, 0.20029305422609317
-0.7344842913979822, 0.6478253784698281, 0.2008425506366757
-0.7344522855586416, 0.6480670311133314, 0.20105653220501862
-0.7343304142216984, 0.6482146642750436, 0.2012254977517631
-0.7340371903148838, 0.6484701484334446, 0.20144567263274393
-0.7333153006925458, 0.6491345171610376, 0.2017474178560903
-0.7315073040842378, 0.6509408316088202, 0.2020500709810941
-0.7273468010820344, 0.6553659480294923, 0.20195919814525568
-0.7198287826777765, 0.6637472702651938, 0.20067966786176725
-0.7106887524156725, 0.6743516627910651, 0.1979254592547948
-0.703750148132084, 0.6827311999020508, 0.19488351213455257
-0.700306033049106, 0.6870969027895827, 0.19277727758634153
-0.6990279017943323, 0.6888323950017411, 0.19166109314014937
-0.6986226555868531, 0.6894445300045485, 0.1911236182628293
-0.698506448263173, 0.6896503675583062, 0.19086500882709562
-0.6984851688568937, 0.6896949610627502, 0.19073502246645707
-0.6985219638469875, 0.6895981882780055, 0.19065837408404895
-0.6986942505930013, 0.6891266132366917, 0.19057235583152413
-0.6993684468997953, 0.6872723051379003, 0.19033238826221385
-0.7019599614428834, 0.6801744778863502, 0.18941615921198401
-0.7113793639394442, 0.6544853730732731, 0.185984648644854
-0.7404210069092314, 0.5755418337510595, 0.17512958855686
-0.8041168913493666, 0.40291874398140604, 0.15076039333466318
-0.8879974950136462, 0.17644505042874528, 0.11774945060360634
-0.9504138821190262, 0.008976276002395771, 0.09205125320671012
-0.9788269159574792, -0.06632407913772935, 0.07934516888290578
-0.9882480934353578, -0.09065065301442635, 0.07443798109113396
-0.991003093044962, -0.09737912362652314, 0.07258018862040366
-0.9918326325116963, -0.09920287645395506, 0.07178241276922676
-0.9921152041453668, -0.09976747318239795, 0.07139359468119136
-0.992213276337072, -0.1000723861068235, 0.07121548009166374
-0.9921966253681372, -0.10053182177198436, 0.07122930258197685
-0.9919928438707425, -0.10171957384534286, 0.07159380095763893
-0.9913175965275872, -0.10508262430433035, 0.07284303642778413
-0.9894716120645624, -0.11402648668860729, 0.07627995675387143
-0.9853824158943062, -0.1337556022194241, 0.08390073623523747
-0.978922043130164, -0.1649162141517965, 0.09594121582478171
-0.9723754038260715, -0.19648380245790548, 0.10814433443506923
-0.968115731579563, -0.21700950633350236, 0.1160870053583268
-0.9661257700213629, -0.22658866737047564, 0.11979758458633591
-0.9653483437159267, -0.23031214569649844, 0.12124312222716391
-0.9650485642246599, -0.231691566302854, 0.12178754897042404
-0.9648790080470498, -0.23231814723049984, 0.1220604643626872
-0.964627925616452, -0.23296796459561983, 0.12240138951618611
-0.9639702754333769, -0.23447800227030188, 0.1232504207872306
-0.9620891185862187, -0.23872574016405085, 0.12566173525586904
-0.9571001929384925, -0.24997226413399568, 0.13205045414337757
-0.9462856656634795, -0.27435218287746393, 0.14589666009178323
-0.9294660380145587, -0.312275334350035, 0.16742979363443036
-0.9122351492377454, -0.35112930827668903, 0.18948842585251066
-0.9005344363575281, -0.37751383456152926, 0.2044667188622831
-0.8947548066551347, -0.39054603628003176, 0.2118640924942099
-0.892409204978522, -0.39583427760029977, 0.21486316198340602
-0.8915464495350927, -0.3977783499318158, 0.21595776259957686
-0.8912373854301451, -0.3984728774152233, 0.21632364230955725
-0.8911141088297488, -0.39874566497263886, 0.21638078725943546
-0.891017370475335, -0.39894946009818477, 0.21613153429094284
-0.8907833138780619, -0.3994302447845905, 0.2149926132101988
-0.8899869970788369, -0.40106651557274803, 0.21073353765936562
-0.8875491639680145, -0.4060771065430739, 0.19720776833902648
-0.8816969876705107, -0.41806723961960857, 0.16319878108599775
-0.8714446336943874, -0.43890285359588754, 0.09882571226224435
-0.8590363572419198, -0.46367187205732013, 0.009366848392540155
-0.8496263644167068, -0.4815262842714723, -0.0812686172396753
-0.8472735455936794, -0.48408359934101, -0.1489654631990056
-0.8520986779944608, -0.4712040936705914, -0.18888531105306322
-0.8612464842510984, -0.44903041662335824, -0.21141785120194492
-0.8711649233688934, -0.42540166667634005, -0.22599395989470727
-0.8792648120684299, -0.4061863194395935, -0.2359709213179337
-0.8847012646525269, -0.3933040787631507, -0.24232300885520153
-0.8879399070299965, -0.3856323971071317, -0.24604631365720747
-0.8897723495636871, -0.3812922030221723, -0.24814175459792084
-0.890795123129889, -0.3788698230423937, -0.24930918735718652
-0.8913668251093493, -0.37751578805866454, -0.24996134392261155
-0.6973089188441666, -0.4378785673551797, -0.5673136514672514
-0.6971140927167567, -0.4380676756093277, -0.5673572500963721
-0.6964948981398672, -0.4386680144808817, -0.5674961831231045
-0.6945600141564446, -0.440563364479021, -0.5679200111741948
-0.6888101856458995, -0.4462403923340315, -0.5691558138566379
-0.67392958295464, -0.4610054980686561, -0.5723159435209458
-0.6448877447581207, -0.4899019458777643, -0.5784425064352244
-0.608027560563201, -0.5266283926567376, -0.5861922983758949
-0.5794938919653009, -0.5550735014471962, -0.5921827674362173
-0.5651613393936239, -0.5693553601543833, -0.5951952759190611
-0.5597520489045812, -0.5747276138555034, -0.5963437201101617
-0.5579740756208131, -0.5764630580557801, -0.5967394992049552
-0.5574054631903346, -0.5769661743224261, -0.5968903833521717
-0.557206186359908, -0.5770440098954559, -0.5969649559555743
-0.5571193692736351, -0.5768553735515675, -0.5969716314723038
-0.5571060622065221, -0.5760920716883701, -0.5967084531092619
-0.5573347977219967, -0.5732749871332938, -0.5952564473545344
-0.5585825299141133, -0.5627415831906982, -0.5890058495375843
-0.5635637659775516, -0.525522892546336, -0.5656705282436626
-0.5792222513154933, -0.41413708182696607, -0.49417722420327936
-0.6145288501653524, -0.16882293802057782, -0.33489782736066137
-0.6646136385017762, 0.17455297498353864, -0.11046228184249507
-0.7055331703403567, 0.4526938703690179, 0.0721100555416978
-0.7253246184447579, 0.5863685966437966, 0.1601339012988223
-0.7319546868485818, 0.630915353586742, 0.1895763356919528
-0.7338156765304464, 0.6434508002537664, 0.19792611074716987
-0.7342861177710865, 0.646842206482029, 0.2002490135978467
-0.7343506401791268, 0.6477943574319248, 0.20099085506879305
-0.7342511733346917, 0.6481224134879822, 0.20138100718918364
-0.7340006034740749, 0.6483472084489444, 0.2017983257184276
-0.7334857955311574, 0.6487079691298543, 0.20241938879922555
-0.73240662786933, 0.6495285826123197, 0.20337062752178225
-0.7301053740137804, 0.6515186336741433, 0.20465126633542502
-0.7255198487997626, 0.6559711318520639, 0.20577919606617576
-0.7181005017410866, 0.663910928479616, 0.20547467642817874
-0.7096327294629929, 0.6737998986903079, 0.202737102160858
-0.7033054648287246, 0.6818933606340515, 0.19865751873505244
-0.7001296484705616, 0.686441556204322, 0.19520622000070884
-0.698943302426777, 0.6884373083015117, 0.19305797014617287
-0.6985765909680252, 0.6892258390024035, 0.19189152856037844
-0.6984810301804403, 0.6895285643176148, 0.19128444289405308
-0.6984724044397607, 0.6896180497971199, 0.1909704665832882
-0.698519520378204, 0.6895252476420936, 0.19080594251075841
-0.6987081035327368, 0.6889968222662431, 0.1907012262681871
-0.6994269579892194, 0.6869322730150924, 0.1905265841133647
-0.7021569513846859, 0.6791868211384792, 0.18984386588418684
-0.711927535241613, 0.6518241686768231, 0.18705259742209107
-0.7413399539483928, 0.5702757712148935, 0.1777782099125275
-0.8041059463154593, 0.3977064571095053, 0.15642012599188804
-0.8854528710923701, 0.1761431220662821, 0.12648340772512429
-0.9465706892906858, 0.012203236169578463, 0.10126967199110916
-0.9755942576139173, -0.06326535057678623, 0.08672729676395798
-0.9860374479616567, -0.08867131362112148, 0.07960682857797999
-0.9895546214792547, -0.09615942720407127, 0.07604930610748505
-0.9908738907007129, -0.09842556723756148, 0.07410908073253575
-0.9914638756455246, -0.09925226864751902, 0.07298356454453649
-0.9917544367798348, -0.09972188563124969, 0.07233747274169422
-0.9918563688705611, -0.1002972059902658, 0.07205944922949249
-0.9917194748524722, -0.10158996905640484, 0.07225414460755841
-0.9910697540703141, -0.10508631581368523, 0.07342685381579162
-0.9892209754627586, -0.11420396718974853, 0.07684609357156585
-0.9851455415180745, -0.1340201588525469, 0.08441132689879077
-0.9787642881429393, -0.1649953898777647, 0.0962626753656443
-0.9723015979677242, -0.19633092902101057, 0.10827275762432399
-0.9680620045140733, -0.21685199734239655, 0.11616058583147185
-0.9660608714469614, -0.22652501165848105, 0.11988708915662066
-0.9652710381386688, -0.2303209244969927, 0.12135323331152269
-0.9649555132268811, -0.23175690312353225, 0.1219202437528956
-0.9647492482962827, -0.2324743060147026, 0.12224123773720938
-0.9643968145086916, -0.2333536472433613, 0.12271261755436533
-0.9634577045227449, -0.23549501785820623, 0.12392270061730161
-0.9608501498531655, -0.24137603110845682, 0.12726458728146825
-0.9543368834881119, -0.2560612407600257, 0.13560436107732887
-0.9414813292770132, -0.28506303987234655, 0.15206028488504233
-0.9237834769620353, -0.3250052770907965, 0.17471149802985997
-0.907854830856176, -0.36096058920170027, 0.1950968599806423
-0.8981633811987315, -0.3828358090459094, 0.20749916811493685
-0.8937242142531532, -0.3928535381779658, 0.21317854202818703
-0.8920040701199385, -0.3967332326138555, 0.21537540031537902
-0.8913882867928217, -0.39811945603421744, 0.21615142645622593
-0.8911686287680821, -0.3986098529890829, 0.2163969918722772
-0.8910735058113078, -0.3988149432760284, 0.21640072701971608
-0.8909754803068866, -0.3990141463929282, 0.21609147820095123
-0.8906977516940087, -0.3995763796783695, 0.2147417341263408
-0.889700396533487, -0.4016162311317309, 0.20952491514373786
-0.8865237335053743, -0.40814700741375076, 0.19242098543351602
-0.8787902378661685, -0.4240642032782722, 0.14951604434167096
-0.8656092379990454, -0.4511346189671435, 0.07287063851765206
-0.8507286392199591, -0.4814634515770761, -0.021561246453218684
-0.8403632994973289, -0.5020336967751384, -0.10241840168477785
-0.8376009085847914, -0.5063041536261641, -0.15351725475507835
-0.8415020846895422, -0.4960914422184264, -0.18155143753952643
-0.8497590198463666, -0.4761970802343573, -0.1991838591982263
-0.8599990116390561, -0.45184237631131136, -0.21332541244384726
-0.869935781647814, -0.4282805063279276, -0.22531747626791507
-0.8779289858558077, -0.40934274750927635, -0.2345926078037722
-0.8834950675523126, -0.39615865810421735, -0.24097540944288132
-0.8870176273280564, -0.3878156172739019, -0.2449997636591131
-0.8891287995664544, -0.38281550645544665, -0.2474087386766678
-0.8903615721376132, -0.37989577820604137, -0.2488148357250435
-0.6967410413674158, -0.43742119582194094, -0.5679786886282197
-0.6965282715679626, -0.43761688212063476, -0.5680320903760163
-0.695855947142504, -0.43823352169716945, -0.568201757455367
-0.6938006083619891, -0.4401886358590337, -0.5686832054818133
-0.6878369702722907, -0.44601721248638454, -0.5699976884862172
-0.6728067379201622, -0.46093980033419607, -0.5731890226800465
-0.6441667720017391, -0.4896037476026477, -0.5791532177477772
-0.6081590387726108, -0.5257786001182635, -0.5865815458054721
-0.5799631719978224, -0.5541479410973563, -0.592373883864897
-0.5654302347003601, -0.5687541839890369, -0.5953692810661882
-0.5597858019300912, -0.5743729763625512, -0.5965697701861833
-0.5578665686912639, -0.5761903491672801, -0.59704182532349
-0.5572013522582118, -0.5766725323736107, -0.5972988882031252
-0.5569026324675177, -0.5766606191137162, -0.5975277660666123
-0.5566830510171719, -0.5763063921739284, -0.5977601913150654
-0.5564787307046526, -0.5752540727109934, -0.59781835548592
-0.5564345308732453, -0.5719238814439661, -0.596796931581558
-0.557298854697528, -0.5606015247548567, -0.5911300710354153
-0.5616668208663177, -0.523246977654598, -0.5691013445950097
-0.5760009336604853, -0.4169494954394216, -0.5022087148232047
-0.608819419576636, -0.18786709063582843, -0.3537668019481888
-0.6571807496179587, 0.1395313635936319, -0.13835359078277665
-0.6997524075015925, 0.42245478880738624, 0.04954184917991788
-0.7224485116638454, 0.571176378370032, 0.14903161504411394
-0.7307890401620171, 0.6251581767209622, 0.1854542461843394
-0.7333029399010329, 0.641468493453161, 0.19664059738203818
-0.7339509738342143, 0.6462103016635368, 0.20006507738160817
-0.7339838944831634, 0.6476734443135158, 0.20136035006515404
-0.7337150258635111, 0.6482524541982415, 0.20222926080541442
-0.7331421772244, 0.6486834619495628, 0.20328474540036218
-0.7320950666422937, 0.6493012042216059, 0.204881445150056
-0.7302215033067646, 0.650465806735929, 0.2072986003137296
-0.7269526107202979, 0.6527977353322298, 0.2105575023994534
-0.7216988242064586, 0.6572113372074126, 0.2138415684279211
-0.7146296000838311, 0.6642440708733319, 0.21509130168498078
-0.7074420666403473, 0.6727531246594463, 0.2124359350048219
-0.7022782776866161, 0.6801796007122489, 0.20673519996504383
-0.6996736576834158, 0.6849744232555706, 0.20082964972329273
-0.698713120010618, 0.6874835272418137, 0.1965082638407533
-0.698449775408513, 0.6886697651734052, 0.19387157507112418
-0.6984109693397078, 0.6892069952347047, 0.19239634781391027
-0.6984371783558473, 0.6894066797128076, 0.19160949475586977
-0.6985122336532078, 0.6893152557669169, 0.1912215942614582
-0.6987426158780958, 0.6886200941117723, 0.19108896357489286
-0.6995682049371031, 0.6859810666867878, 0.19114395272325196
-0.7026053036343134, 0.6765785070048482, 0.1912136428041221
-0.7130827642510599, 0.6452485806786726, 0.19035366094217612
-0.7430634479176408, 0.5579788581991924, 0.18536237278686485
-0.8036172838375939, 0.3854156752011254, 0.1712973629071629
-0.8795002535283688, 0.17387122477777553, 0.14860346177088063
-0.9372937616697998, 0.018333942038379167, 0.125310201193391
-0.9670274747120963, -0.05608332787923805, 0.10728688942564302
-0.9796293514792911, -0.0832932375468917, 0.09497847112366511
-0.9850779435835315, -0.09250450365641175, 0.0868964007864861
-0.9877848219706649, -0.09595267796160813, 0.08164347167711201
-0.9893087239985082, -0.09754977961077928, 0.07825639574989048
-0.9902109660164856, -0.09852484650441083, 0.07611705514274089
-0.9907031729362636, -0.09944771249416212, 0.07487939306328086
-0.9907999326018907, -0.10101739881945078, 0.07448890988597466
-0.9902667787624316, -0.10480569214534734, 0.07534567948036446
-0.9884615312963883, -0.1142660516918501, 0.0786011427068576
-0.9844535073218484, -0.13427683996573495, 0.08593303719719912
-0.9782488198780235, -0.16501404744758627, 0.09731106648837609
-0.9719575891579516, -0.19604280325782233, 0.10887374393212772
-0.9677654963717499, -0.2166113141984464, 0.11660777438610134
-0.9657510422927504, -0.22647547622534286, 0.12033969604932605
-0.9649444577259825, -0.23041232850523702, 0.12183152195280453
-0.9646050211226962, -0.23195422583862116, 0.12243206655068573
-0.9643369293068422, -0.23283154731408967, 0.1228337239734155
-0.9638150649498876, -0.2340945639572975, 0.12352342197511346
-0.962431784466617, -0.2372298225281066, 0.12530360720146205
-0.9587878350833736, -0.2454481962995095, 0.12997206032199307
-0.9504345803498913, -0.26432586168168265, 0.1406608234503876
-0.9357660522934031, -0.29753427153964823, 0.15942020508679539
-0.9181038654864989, -0.3375577187966665, 0.1820016748517829
-0.9040856718110499, -0.3693297617492348, 0.19992210968836405
-0.8963220815294488, -0.3869185238147156, 0.20984580958641205
-0.8929637466953958, -0.3945198912373535, 0.21413578807955316
-0.891702212827024, -0.3973689563075187, 0.21574073593486817
-0.8912551924624655, -0.39837077605805304, 0.21629335998943752
-0.8910895469465382, -0.3987311424248241, 0.216453248687022
-0.8910012828800999, -0.3989077318605102, 0.21640175668363515
-0.8908759756899511, -0.3991466425515742, 0.21597524233218557
-0.8904969711700264, -0.3998937429481711, 0.21419849272162772
-0.8891519934416519, -0.40261487814986086, 0.2073597058628411
-0.8849332105698993, -0.41125857740796135, 0.18514571279902706
-0.8750249316278783, -0.43168325151417336, 0.13156961812239698
-0.8593211269601521, -0.4641450331858128, 0.04380867426631039
-0.8433825518072748, -0.4970653510056417, -0.050513907222207555
-0.8333797272723692, -0.5174595962453842, -0.11885968432251973
-0.8304941901793277, -0.5226651223345709, -0.15598852218669065
-0.8328756207226099, -0.5163756178733075, -0.17495710772581805
-0.8388844037385205, -0.5019156272805249, -0.1875171587780041
-0.8474684275342484, -0.4815106509055478, -0.19914874060077545
-0.8574339232308956, -0.4578855280304807, -0.21106437356277974
-0.867226134025127, -0.43468705887118725, -0.22238241683189092
-0.8754662999598263, -0.4151693085781846, -0.23181705640896388
-0.8815424322403975, -0.4007782175240678, -0.23875475281976785
-0.8856046052925778, -0.3911572378303087, -0.24338898166576345
-0.888155994331622, -0.3851142261489663, -0.24629885194591555
-0.6945718012303191, -0.4356481821160593, -0.5705328882460042
-0.6943188497380423, -0.4358490586854912, -0.5706133528948804
-0.6935299071019727, -0.43647318211211955, -0.5708656761727331
-0.6912468341603654, -0.4385004999735786, -0.5714783792155799
-0.6849572758586575, -0.4445558710281435, -0.5729179646834305
-0.6698286004986349, -0.45975473198725864, -0.5760517242876068
-0.6420390038918624, -0.48822814410375526, -0.5815276846649444
-0.6075866128496363, -0.5238462433704899, -0.588154197272387
-0.5801846026201248, -0.5522858916506116, -0.5933610273619317
-0.5655235706514717, -0.567464545963312, -0.5961713796182073
-0.5595573196633166, -0.5734820645962, -0.597427346641664
-0.5573822773406382, -0.5753881360138949, -0.5980905302234495
-0.5564824093548161, -0.5757435792720575, -0.598665798716699
-0.5558974787846033, -0.5754405246430462, -0.5993735401478891
-0.5552833732149256, -0.5746139880558252, -0.6003003126400863
-0.5545266729208842, -0.5728454500999411, -0.6013329682940992
-0.5537286764746646, -0.5685130485907496, -0.6016400448155573
-0.5535830501678111, -0.5563023745401645, -0.5979058137694192
-0.5564571914036608, -0.5207800472860535, -0.5797771044352169
-0.5680547853270913, -0.42701353952200194, -0.5230598002493435
-0.5963622862074083, -0.22875867931872243, -0.39472632661140156
-0.6415141464047827, 0.06857223108022949, -0.1961971376774609
-0.6867177726355722, 0.356663502978686, -0.000528155584976955
-0.7151741161212626, 0.5338735206763537, 0.12135897462859553
-0.7275358979609922, 0.6094216567196766, 0.17405184558431333
-0.731803860016363, 0.6356380267017102, 0.19278187344999556
-0.7329918078608938, 0.6442394253467472, 0.19935721945703588
-0.7329906999042751, 0.6472230026711183, 0.20223289524976043
-0.7323299193530248, 0.6485267810798572, 0.20436073499322324
-0.7310255958455745, 0.6494835810443337, 0.2069311168505033
-0.7288724356389594, 0.6506575043318407, 0.21059852423089565
-0.72558047174524, 0.6524331398725383, 0.215693381660797
-0.7209540654187244, 0.6551934763569702, 0.22189961571254477
-0.7151771503648391, 0.6592880215198081, 0.22771679194696487
-0.7090494425063919, 0.6647894683439901, 0.23052316856123264
-0.7037963824411078, 0.6711591507177221, 0.2281486638207579
-0.7003351616843384, 0.6772839425290484, 0.22101509537773764
-0.6986739459706496, 0.6821391719997735, 0.21205610718617748
-0.6981570878274426, 0.6853989829330248, 0.20420662818249352
-0.6981264629560976, 0.687337869137919, 0.1986662453991383
-0.6982265783581713, 0.68838390431438, 0.19524261722108224
-0.6983426782873543, 0.6888317074492835, 0.19331663289411966
-0.6984916389144374, 0.6887103500213565, 0.19238840930330214
-0.6988288395813941, 0.6875248784341189, 0.19224945217901482
-0.6999050715507734, 0.6833277673715563, 0.19305702009405637
-0.7035870843913908, 0.6698063666958498, 0.1953832914298315
-0.7153221809208422, 0.6296853503270384, 0.19981619272299309
-0.7457790125840098, 0.5313596555384397, 0.20514808237339263
-0.8014614084653233, 0.3594343761866574, 0.20646400603763773
-0.866861639113281, 0.16645892422149272, 0.1983629923545371
-0.9172214189047849, 0.028479550569653542, 0.18069062971019373
-0.9466061865810756, -0.04075893995852233, 0.15823381787995916
-0.9626743326488457, -0.06978369486602695, 0.1364284266061057
-0.9721900342916666, -0.08221695403354012, 0.11838082592476759
-0.9783241353419655, -0.08844466758184975, 0.10479708020550539
-0.9824107106060023, -0.0921061623080519, 0.09515793747790116
-0.9851147283552377, -0.09453765096779773, 0.0886072748032856
-0.9868170234644987, -0.09647854994582228, 0.08439418309058831
-0.9876818206050583, -0.09880294018070088, 0.08209167133681199
-0.9875944724756799, -0.10326347957491806, 0.08178351522994984
-0.9860433146081281, -0.11342102018059459, 0.08426822816088723
-0.9822950958063825, -0.13393722245779235, 0.09073636587488323
-0.9764850498079839, -0.16466364109937823, 0.10089077837933595
-0.9705289842156388, -0.19560561344877644, 0.11138543959987214
-0.9664363711832699, -0.2164685616686087, 0.11868263616714293
-0.9644071662617407, -0.22672157040385543, 0.1223521351200152
-0.9635805760740337, -0.2309193831073389, 0.12385710106261276
-0.963208043845763, -0.23265473140741724, 0.12449823015679436
-0.9628370610346527, -0.23381675590718326, 0.12503156064717333
-0.9620360367873872, -0.23572170451478658, 0.12607974109651926
-0.9599873784383753, -0.2403704377031956, 0.1287106575967141
-0.955013711582878, -0.2516861814678165, 0.13506776186614491
-0.9448091536965761, -0.2750504226610144, 0.1480832670413005
-0.9291024495203992, -0.3111629373043728, 0.16809287231161466
-0.9125747800743021, -0.3492354305809336, 0.1891355321871019
-0.9008676523653415, -0.37619782506665644, 0.20403771703930032
-0.8948541445489321, -0.3900195141414516, 0.21168984362075657
-0.8923491044919667, -0.3957550123233829, 0.21487048365043965
-0.8914168648356674, -0.3978694206940673, 0.21604003480894074
-0.8910758305829296, -0.3986187273583987, 0.21643793448365445
-0.890928170835697, -0.3989119826390998, 0.21653660006535472
-0.8908134909099849, -0.3991074713250405, 0.21641931453721722
-0.890608192813848, -0.3994622957186017, 0.21578288477181504
-0.8900099422235602, -0.4005884660525963, 0.21321240363318117
-0.8880377703859186, -0.4044979480390478, 0.2036238080189828
-0.8822911151114732, -0.41618698871751464, 0.17403430677112455
-0.8699663782435868, -0.4416128869746276, 0.108268860570791
-0.8526162787166117, -0.47773320112704076, 0.012634711990454534
-0.8372384099592615, -0.5099148150026102, -0.07591865787153236
-0.8285768950875813, -0.5279642283891316, -0.1310926680141311
-0.82586529814538, -0.5332853341106915, -0.15776372685462167
-0.8268888794615131, -0.5304373453675616, -0.17042704898489838
-0.8304687641627406, -0.5218085057992838, -0.17856642888904878
-0.8363037409975941, -0.5079373204916218, -0.1865688528256619
-0.8442419842902429, -0.48911729094773637, -0.1960458402043266
-0.8536860895711859, -0.46674070803482137, -0.20694135302944908
-0.8634288888017478, -0.44365987548098273, -0.21808622455352247
-0.8721101917254647, -0.423094544542423, -0.22799459087208487
-0.8788884785826638, -0.4070369970464481, -0.23572598373361964
-0.8836633230753795, -0.39572408290201155, -0.24117096901563598
-0.686763030061458, -0.4292185661587241, -0.5797526500612451
-0.6864426802744549, -0.42942483548319693, -0.5798804557736731
-0.6854697772002113, -0.4300518240634813, -0.5802686964487328
-0.6829057523130767, -0.43220412023610594, -0.5810277269453514
-0.6763986588556057, -0.4386820342225457, -0.5824224564989348
-0.6617122148423809, -0.45453000409734395, -0.5849435056628318
-0.6359109752075991, -0.4833244370871062, -0.5889039047880602
-0.6044241229949401, -0.5189955347077725, -0.593469548305953
-0.5788851577772907, -0.5481348198764544, -0.5970535426340857
-0.5645354396183413, -0.5644011386076703, -0.599141186431018
-0.5582552621748761, -0.5710613304099038, -0.6003806892120533
-0.5556340976370053, -0.5729994888005295, -0.6015007967270138
-0.5541825185061349, -0.5729300786057254, -0.602930957358947
-0.5528669248935103, -0.5718426301302412, -0.6049112373321553
-0.5512837418129574, -0.5698905985615996, -0.6075759536187041
-0.5492956285744521, -0.5666899403812621, -0.6108418101510671
-0.5470251602067165, -0.5609138681873258, -0.613916156818511
-0.5451670106573483, -0.5486221372894159, -0.6139318711095634
-0.5457536501211011, -0.5190787133276552, -0.6028274931104145
-0.5533337815910844, -0.4480335175789849, -0.5624852698099964
-0.5749106609011055, -0.2980370763349193, -0.46491543186031875
-0.6141095731586529, -0.051858209171553316, -0.29620735801717024
-0.6612830223606813, 0.23184359008735012, -0.09707182449587295
-0.6986364098556438, 0.4510053792570507, 0.05912087951638457
-0.7190991552560184, 0.5692283676620756, 0.14466068787259925
-0.727639764026905, 0.6193054697195982, 0.18179849075403243
-0.7303658636433628, 0.6383746703677454, 0.1969095037369084
-0.7304554264648528, 0.6456986461551412, 0.2040721769352861
-0.7290557258862449, 0.6489884795863462, 0.20921362554495188
-0.7264337005414803, 0.6511402229021126, 0.21477996593501547
-0.7226102775729187, 0.6532552092341248, 0.22171628848145658
-0.71773445259289, 0.6557274070145612, 0.2299475528676822
-0.7122803622809615, 0.6586213071035422, 0.23839838808156794
-0.7069839904539439, 0.6618703767434099, 0.24522399725327002
-0.7025584982396146, 0.6654372622612531, 0.248434874613733
-0.6994319131418062, 0.6693555462738054, 0.24665634856333662
-0.6976690796085541, 0.673587967920902, 0.23980590245934605
-0.6970269157800322, 0.6778459147583229, 0.2294557052115435
-0.6970832234692461, 0.681637004079692, 0.21830114882539092
-0.6974239864313697, 0.6845518452682524, 0.20874780715540778
-0.6977916439113199, 0.6864510933068637, 0.20187756922192113
-0.6981085665000691, 0.6873401828497114, 0.19761995363112253
-0.6984413223411662, 0.6870122596076309, 0.1955492482509282
-0.6990487891360856, 0.6844072355141968, 0.19559868265559496
-0.7007084523410019, 0.6761183159514481, 0.19863370245548853
-0.7056823226559648, 0.6529570951935127, 0.20693978177893627
-0.7193571029925496, 0.5953619287716464, 0.22371422114287837
-0.7493137642414359, 0.47963753431537115, 0.2493816122558629
-0.7956952035177189, 0.31259886948149695, 0.27608604162423306
-0.844211573649112, 0.15086231590635887, 0.29003853489508585
-0.8814020902034402, 0.043055890836454176, 0.28332497801838286
-0.9070025454800252, -0.013228797691476122, 0.2593991374857749
-0.9259516522605223, -0.041483905615573545, 0.22724333186398446
-0.9411284901162777, -0.057763928931496185, 0.19463650135757288
-0.9533516926584179, -0.06872891357144703, 0.16603585752654776
-0.9628361181060242, -0.07667050692684063, 0.14315967707286095
-0.9698388753469179, -0.08253778051173455, 0.1260623035368647
-0.9747135056881077, -0.0870797945773931, 0.11404162575068712
-0.9777713278381076, -0.09137377432134845, 0.10628164048202102
-0.9791147472373226, -0.09748362937672359, 0.10226734118919725
-0.9785122165102008, -0.10923468303790487, 0.10200187878023957
-0.975584292615324, -0.13119735388258857, 0.10572188970668268
-0.970640952365337, -0.1629986019850116, 0.11274446126924914
-0.9652972066208994, -0.19501218921824245, 0.12066485813324952
-0.9613307064063049, -0.21711270544250252, 0.12680369471712452
-0.9591906504847871, -0.2283272180047701, 0.1302658762178624
-0.9582616813709612, -0.23307833677165934, 0.1318151157725467
-0.9578053410043906, -0.2351826332797959, 0.13254251696149502
-0.9572713832989725, -0.2368250265647359, 0.13327592568448016
-0.9560914073055405, -0.23969764108385436, 0.13479791848303851
-0.9532811061647894, -0.24634359759523297, 0.1383685597557035
-0.947137842240177, -0.261063315359789, 0.14612194197760803
-0.9359981141200617, -0.2881248035964864, 0.1601217514941537
-0.9209534793503052, -0.32500691918657715, 0.17897592373266316
-0.9069325075195636, -0.3595183397385852, 0.1965197886115065
-0.8978897138157143, -0.3817307028499048, 0.20782782404543254
-0.8934846621392519, -0.3924592782263835, 0.21332712521769176
-0.8916676881177399, -0.39681048297584975, 0.21557469020338887
-0.8909620841756904, -0.398431075885308, 0.21641209202006376
-0.8906588808425798, -0.39904786119074237, 0.2167088939818585
-0.890465897915615, -0.39935579586237446, 0.21677223078982355
-0.890243000229945, -0.39966431406380976, 0.2165751116155323
-0.8898231375612703, -0.4003042969741343, 0.2155810396270577
-0.8887426923311311, -0.4021973322116653, 0.21161735038046678
-0.8856374002799071, -0.40814761465066823, 0.19757826458982664
-0.8777330085069903, -0.424056924736865, 0.1578933082494605
-0.863081526895245, -0.45442451937428757, 0.07958878002147379
-0.845484629624229, -0.4916383732322212, -0.01896680256165345
-0.8320894173385693, -0.5203412304273549, -0.09739564688708029
-0.8252673049126086, -0.5350043051294867, -0.1404541935734432
-0.823002471521025, -0.5397530114519844, -0.15958366880030225
-0.8232230246840793, -0.5390032828268222, -0.16800100613202845
-0.8250376877479401, -0.5346255887702807, -0.17292740150694608
-0.8283629401722329, -0.5267188076550366, -0.17767023390428383
-0.8334662991240223, -0.5146123358504636, -0.1837934045725952
-0.8405620016035023, -0.497785407000815, -0.1919769446991822
-0.84939650277165, -0.47683428690464413, -0.20207591506812506
-0.8590274514492473, -0.45399113022103854, -0.21306204501498743
-0.868123263305809, -0.43241173444761133, -0.22343147397225924
-0.8756262600051699, -0.41460161473971413, -0.23198239003665627
-0.6629000927960692, -0.40949370685232706, -0.6079687105188729
-0.6625806684158861, -0.4097699713419686, -0.6080598591918619
-0.6616498585351563, -0.41059027375802687, -0.6083188447445266
-0.6593404796690214, -0.41327373202532014, -0.6086248891925082
-0.6537247499742027, -0.42091144690243565, -0.6088054383306425
-0.6414316721898232, -0.4385904743383688, -0.6087510925146725
-0.6202975740706749, -0.46941872757954556, -0.6084991349066486
-0.5945443441045835, -0.5071652877212215, -0.6081271554903308
-0.573037794969644, -0.5387371987551745, -0.6077916974262315
-0.560173528999601, -0.5571829003228373, -0.6078918845825443
-0.5538846961520858, -0.5649056571375863, -0.6088369181587805
-0.5506143423630154, -0.5667429662525073, -0.6108375789531741
-0.5481429477346214, -0.5657537776102067, -0.6139857170505002
-0.5455099739354041, -0.563222119985301, -0.6183163496926415
-0.5424048598019379, -0.5595512489562564, -0.6237470539860025
-0.5388549446378369, -0.5547265779608166, -0.6299155356814622
-0.5351681927746774, -0.5482116902457963, -0.6358693336284897
-0.5320418309078468, -0.5380637314053546, -0.6393937414217171
-0.5309024966848284, -0.5186107616760944, -0.6354407967304033
-0.53463591347139, -0.47590296239901425, -0.6129717172698437
-0.5483654902769362, -0.38298290526076256, -0.5515879053829389
-0.5778437268103019, -0.2084429176414873, -0.4278050501308585
-0.6220882346012665, 0.04288541556686859, -0.24494715524969884
-0.6678280398089613, 0.29889961984480007, -0.056233544884278265
-0.7005483405918587, 0.4816338216575382, 0.08011367553731791
-0.7175719677413771, 0.5794015141835077, 0.15459922542614532
-0.7240439392256341, 0.62314279811186, 0.18982343407350383
-0.7248600253037676, 0.64141559887372, 0.20718182807561977
-0.7226267693928596, 0.6494532439047158, 0.21829845977093776
-0.7185692963688373, 0.653815218283291, 0.228081821936799
-0.7135019404774108, 0.656977618999269, 0.23787817681797188
-0.7082455488967189, 0.6596850104274234, 0.2472269829681702
-0.7035594161558766, 0.6620517634231093, 0.2550289787891578
-0.6999075562147481, 0.6640985924366257, 0.26035147669119035
-0.6973906906443075, 0.6659642609433873, 0.2626628328383236
-0.6958831229659215, 0.6679173138039355, 0.2616221864080494
-0.695198968163446, 0.6702669253381067, 0.2569133923948531
-0.6951618172094731, 0.6732026855838437, 0.24851661695381674
-0.6955843601755107, 0.6766032322821023, 0.23731460231224283
-0.6962473702919815, 0.6799786532285019, 0.22528149887341337
-0.6969519175583765, 0.6826504696867944, 0.21468966038620982
-0.6976139554089903, 0.6838974620276632, 0.20710105741382456
-0.6983441143577288, 0.6826175812013682, 0.20333257374360977
-0.6995820998924969, 0.6761898298298599, 0.20446290439873527
-0.7024894888685935, 0.6582141207338174, 0.2132154015836341
-0.7097221826023076, 0.615553505906361, 0.23470242252068624
-0.7256183083497488, 0.5299666820367612, 0.27404861447319934
-0.7526482192355609, 0.3961678509567912, 0.3286470080089411
-0.7852459624009851, 0.2461128095326838, 0.3824107457174618
-0.8135029240951661, 0.1285675803390466, 0.41556919360974154
-0.8345228737236862, 0.059644773163964326, 0.4203326972984527
-0.852040130807251, 0.023310114146021726, 0.40159754260550395
-0.8693211592300893, 0.0013231276792913308, 0.3681932489174909
-0.8870452714342609, -0.015535227426639476, 0.3277919778937381
-0.9044033416506246, -0.030206837048844516, 0.2862154885090548
-0.9202302484722595, -0.04309474453629617, 0.24769266305737073
-0.9336214194240379, -0.054037617423554285, 0.21488195993591236
-0.9441356632377953, -0.06317036280694087, 0.18894410028583192
-0.9517061115253149, -0.07140823037958968, 0.1698957125787654
-0.9564007483647553, -0.08104113614837884, 0.15711978130313886
-0.9582113401672915, -0.09629634871000431, 0.1497605127521209
-0.9571308473896054, -0.1219702619501248, 0.14681436374592252
-0.9536213804648881, -0.15777613138948407, 0.14719180866934423
-0.94894612460724, -0.19417605125147383, 0.14990060072167305
-0.9446856020385632, -0.22034440281478754, 0.15366603274578033
-0.9417742974610489, -0.23432664500817638, 0.15695309718844655
-0.9401547270871182, -0.24056711081770488, 0.15905161170000692
-0.9392499529378235, -0.24349645363287986, 0.16028217876880727
-0.9384290104516492, -0.24586044223316522, 0.1613502499714405
-0.9370414648371216, -0.2497988279470111, 0.1630566058254656
-0.9341891754412638, -0.2581931491257717, 0.16646750029953858
-0.9286509361003732, -0.2751260963566582, 0.1729798378518785
-0.9197161295439142, -0.3033073344928386, 0.183348872959878
-0.9089278930909434, -0.33819783403175835, 0.1957278108780349
-0.8997830226827508, -0.36823525724865835, 0.20613205446812286
-0.8942425942040763, -0.38634436712137543, 0.2124041598091514
-0.8915697610262718, -0.3947512411680103, 0.21540068479151128
-0.8903793145629395, -0.3981701530428972, 0.21668036289327935
-0.8897952553399023, -0.399544869091192, 0.21722688975811946
-0.8893978028926932, -0.40020536500864284, 0.2174854482210436
-0.8889867053231159, -0.4007104418092795, 0.2175771319844532
-0.8884115289434696, -0.40138395327005516, 0.21731665216366208
-0.8874018104811213, -0.4027331675463442, 0.2157658058512126
-0.8852340235926314, -0.4061837728233685, 0.20953492935664847
-0.8801559489495643, -0.41545284006785954, 0.18891656743223492
-0.8696064532101542, -0.4365163339522091, 0.13691504061952145
-0.8536256891729098, -0.4704231966291742, 0.04788729081016772
-0.8378155112315541, -0.5054802327982457, -0.04820301447147962
-0.8275706045553118, -0.5288733730849388, -0.11462017655008662
-0.8228271658934625, -0.5398677435293434, -0.14758840436082715
-0.821230222118799, -0.5435927043117482, -0.16134166336363834
-0.8211640966092043, -0.543740695333768, -0.16697516827548056
-0.8219952413878171, -0.5417690276094325, -0.1698890172874917
-0.823670076394066, -0.537789897103278, -0.17244743606885676
-0.8264499474220349, -0.5311765273452986, -0.1758226563258325
-0.8307542815515722, -0.5209258671817553, -0.1807891473496289
-0.8369617758254108, -0.5061274002840678, -0.18787436759337203
-0.8450755001779537, -0.4867603313835574, -0.19711117181916138
-0.8543966215902594, -0.4644749657860499, -0.20771182428558943
-0.8636144721295603, -0.44238259838624344, -0.21818577727710434
-0.6098053986930041, -0.36549414583439416, -0.6708097201311649
-0.6097945510142254, -0.3660286433423746, -0.6705383510311278
-0.609809297223786, -0.3676119939125765, -0.6697025911033839
-0.6094196536653331, -0.3717707262373429, -0.667842848115469
-0.6073655869699248, -0.3819134832799909, -0.6641808990935638
-0.6012374242780766, -0.40338970535356605, -0.6578604113875184
-0.5891496229138219, -0.4392484733331304, -0.6488244572614672
-0.5732318739423036, -0.48287621841583944, -0.6388270759082031
-0.5589761649480041, -0.520275556310284, -0.6307952543028541
-0.5495959913764557, -0.54301226182664, -0.6266678513468559
-0.5441565883015668, -0.552692186337379, -0.6264884883502779
-0.5404312116856063, -0.5546015680863657, -0.629336456146519
-0.5369689695618968, -0.5526863090028075, -0.6342880030818061
-0.5332563494948345, -0.548973914084399, -0.6406034999339268
-0.5293234424133032, -0.5444347859687042, -0.6475839526337339
-0.5254384141866556, -0.5395494298530367, -0.6544811396993719
-0.5219479979130919, -0.5343843690719189, -0.660454461112201
-0.5192498414865483, -0.5282450110325121, -0.6643657962628843
-0.5179483104231355, -0.5186757804616668, -0.6640513753279075
-0.5193263176807233, -0.49904050511360165, -0.6544424235779155
-0.5262717426636737, -0.45369844068892795, -0.6238319228749014
-0.5440797639829091, -0.3534600675890095, -0.55035887181986
-0.5779664707442268, -0.1682865704055865, -0.41146312658261425
-0.6245774338154596, 0.08660264551732313, -0.2184883501409325
-0.6689701235607465, 0.3326109466780014, -0.030545190410579605
-0.6983601440720716, 0.5019242140152272, 0.10101975936993847
-0.7119744182455994, 0.59174720438442, 0.17384038927965523
-0.7152583230777907, 0.6322490271112147, 0.21064404338207918
-0.7132022362656206, 0.6493344504060015, 0.23080700572590435
-0.708946149028455, 0.6568427583594965, 0.24412926254480027
-0.7043516402486824, 0.6606567320560897, 0.2540804310350662
-0.7004322405498673, 0.6629302437622258, 0.2614615084157221
-0.6975491266602745, 0.6644163078635797, 0.266486998679361
-0.6956415772119803, 0.6654498885842532, 0.2694479743817446
-0.6944847377291757, 0.6662674493176893, 0.2706428355391589
-0.6938629338265685, 0.667091769529176, 0.27015837354392314
-0.6936371131520056, 0.6681602894333761, 0.2677419694630485
-0.6937452216916787, 0.6697168513123979, 0.2628532517929666
-0.6941653586283316, 0.6719123203652013, 0.25502976284136264
-0.6948611369123339, 0.6745753243677899, 0.24459488922066683
-0.6957582215208302, 0.6769344105818066, 0.23322234186220248
-0.6968201306854104, 0.677364856920625, 0.22370880078108255
-0.6982372832952443, 0.6728317058133455, 0.21940875492208223
-0.700713656777012, 0.6574221855299358, 0.22457793761691225
-0.7058417062665278, 0.6202918448252098, 0.245460357323295
-0.7161445160729428, 0.5467284196543992, 0.2892402033206563
-0.7333188571399488, 0.4302504743380236, 0.3569799098369135
-0.7545069245423163, 0.29258486990776206, 0.43454065143654647
-0.77284303276968, 0.1771058070170543, 0.4978762115612826
-0.785011980752689, 0.10735278843150707, 0.5325807495011763
-0.7937257382537037, 0.07312805809522725, 0.5405838262601846
-0.802670580594419, 0.05551192532434619, 0.5299913103174184
-0.8136879795125538, 0.04301721157693017, 0.5070485422022905
-0.8271713053857406, 0.031026583908400084, 0.4754102713719207
-0.8426903151504173, 0.018274931605015223, 0.43783453430537955
-0.8592630666234321, 0.004924810723140703, 0.39731650912927746
-0.8755986872679604, -0.008357715251248017, 0.35718166033016757
-0.8904101800703357, -0.021074735697715286, 0.32050849281151467
-0.9026569090291419, -0.03362027030800998, 0.2894757296336503
-0.9115769160246625, -0.04815470547039444, 0.26505508586397003
-0.9166040672407665, -0.06922160345847843, 0.24701009805052268
-0.9174429477049999, -0.10213566255470882, 0.23419669799903067
-0.914355234004286, -0.14700322186289505, 0.22575900794426965
-0.9084170578843254, -0.19386002933341026, 0.22226644003500234
-0.9014605263615576, -0.22979370359002568, 0.2239644181730275
-0.8953420099485088, -0.25068232744064006, 0.2286337525900771
-0.8909889684549414, -0.2608238911250758, 0.2333327457950677
-0.8883175678255832, -0.2657331270237135, 0.2366407394610442
-0.8868261597597663, -0.26908876933495657, 0.23847980249322362
-0.8860402958407879, -0.2734714853943738, 0.23913292128608843
-0.8856288755879796, -0.28170587634004846, 0.23871227663310424
-0.885414889563477, -0.2972017974310383, 0.23701674702548708
-0.8854530907707399, -0.32172529978036407, 0.23367397089423703
-0.8859565188572031, -0.35110371847175603, 0.2288573318629739
-0.8867815683881485, -0.3760311644099168, 0.22404585416201123
-0.8873384299309978, -0.3910018980636009, 0.220916225090216
-0.8873305270005585, -0.398014890586001, 0.21963056659000457
-0.8869063863132521, -0.401089233534423, 0.21939725514840921
-0.8862386681436196, -0.40265936876224784, 0.21960531893768834
-0.885359979502478, -0.40380470204974916, 0.21997815049638172
-0.8841893755580669, -0.40503918509162634, 0.22032880079097827
-0.8825252559540009, -0.4067976054581655, 0.22020378513566863
-0.8799200889600525, -0.4099002005714053, 0.21801065123173805
-0.8753982938317874, -0.4163697359082317, 0.2086549583270441
-0.8673198166542249, -0.4303383054054339, 0.17977732519134246
-0.8547110677541662, -0.4560074996614179, 0.11520865989852574
-0.8402525438880908, -0.4898025664535152, 0.019130402075307147
-0.8291339761707519, -0.5190058767211669, -0.07112378621436335
-0.8232127111510814, -0.5359898929641358, -0.12674831360197644
-0.8207965036748951, -0.5433770490578149, -0.15239808395231208
-0.8200480643092325, -0.5458881426291932, -0.1626290362662948
-0.8200313368691706, -0.5462205830296885, -0.16658698013698883
-0.8204221833525341, -0.5453927988788084, -0.16838508468473196
-0.8212071231585781, -0.5435391823359952, -0.169721700139167
-0.8225492969516982, -0.5403010772640109, -0.17138614993926088
-0.8247525213308777, -0.5349432437750101, -0.17392378118675272
-0.8282430404310308, -0.5264023716787702, -0.1778784546024246
-0.8334612067938981, -0.51354422165363, -0.18376007493318472
-0.840525944059251, -0.49598720280726916, -0.19169635179713304
-0.8487720279252423, -0.47527074010604603, -0.20092553549594347
-0.5368652905857046, -0.3049172043196663, -0.7572075622262098
-0.5372905474729267, -0.30565944620302177, -0.7565051725227221
-0.5386166220425903, -0.30792180048540446, -0.7543456388125835
-0.5408387349147971, -0.31324046332250416, -0.7499680273955741
-0.5435618550561887, -0.3252135342046713, -0.7419095592576826
-0.5455227702541283, -0.349927612038572, -0.7282001715230725
-0.5449933192379833, -0.391771419440836, -0.7081158785665765
-0.5416646698282028, -0.4445733564813503, -0.684992475449888
-0.537302918053638, -0.4920462730587459, -0.6654699503271684
-0.5335004535099743, -0.5223526344968431, -0.6541847356665887
-0.5303099533316735, -0.5358819551947741, -0.6509878877794834
-0.5271910262932124, -0.5390768444132534, -0.6531261621738743
-0.5239114034694758, -0.537526596078379, -0.6579224126829796
-0.5206069992677379, -0.5343204879870481, -0.6635871077515295
-0.5175456485070368, -0.530867724110797, -0.6690471342652882
-0.5149411797625519, -0.5277184787424644, -0.6737126141547356
-0.5128978443477628, -0.5249467920344327, -0.6772934508531677
-0.5114603311491307, -0.5222278613149838, -0.6795604506528578
-0.5107364495870548, -0.5185788743867575, -0.6799396819641033
-0.5111378523237237, -0.5113704405791463, -0.6766267637149616
-0.5139329679413865, -0.49351601019383134, -0.6643636701347628
-0.5224081291971832, -0.4470579597925757, -0.6294760734826147
-0.5428826232160735, -0.3366348482578517, -0.5447790035360716
-0.5807580466180445, -0.12925355108174472, -0.38454239904120113
-0.6294969249854154, 0.14449421512909993, -0.17144990158837117
-0.6711938864276827, 0.38902050572203967, 0.02151637685435987
-0.6949512385620972, 0.5432407767173625, 0.1468825764799502
-0.7033152808993965, 0.6178700045977629, 0.2118892187482529
-0.7034694923049526, 0.6480322074719488, 0.2425243754997545
-0.7008081116715947, 0.6590897914740641, 0.25739029029634064
-0.6979873556571128, 0.6631521839202085, 0.26529106798271684
-0.6958678020558426, 0.6648167621446809, 0.2697646379259186
-0.6944928199465903, 0.6656207981100646, 0.2723013034010549
-0.693668853615058, 0.6660795858416466, 0.2736382506322035
-0.6932037254649267, 0.666402946880039, 0.2741515214159457
-0.6929683173538986, 0.6667160506034253, 0.27395938100670597
-0.6928970331082633, 0.6671332816524795, 0.2729362886209195
-0.6929770078605634, 0.6677845493950869, 0.2706983468115073
-0.6932391080676228, 0.668779033863443, 0.26665491401931063
-0.6937483192717059, 0.6699952409934441, 0.2603522069437275
-0.6945998167832537, 0.6705068242589954, 0.25235912910857666
-0.6959734178563864, 0.6675250526570566, 0.24549086990803268
-0.6983319519407863, 0.6549738371371041, 0.24559130551911362
-0.7027393817107941, 0.6222415586347545, 0.26134289505359376
-0.7109204613810008, 0.5555635658365958, 0.30220272676755844
-0.7241400419732309, 0.4477286828612436, 0.3716911643900063
-0.740610516686042, 0.3154159717698047, 0.45759153876554925
-0.7550015026722895, 0.19894641963949541, 0.5340550080259913
-0.7635753507999103, 0.127010247713364, 0.5824790245167818
-0.7677568736683822, 0.0940513728415876, 0.6038968100129325
-0.7707336448978868, 0.08066656275251413, 0.6084064162963131
-0.7743766079120555, 0.07398880223065696, 0.603546767687219
-0.7794553938252577, 0.0686645684483261, 0.592496344266146
-0.7863524736457311, 0.0627455117737039, 0.576072174204488
-0.7952534612358715, 0.05551752140639733, 0.5543997894628216
-0.806066546947044, 0.046802145735252904, 0.5278760921776635
-0.8183062540553896, 0.03671039292294179, 0.49766283916993986
-0.8310625980690499, 0.025313282487631025, 0.46571654621376535
-0.843039213917847, 0.011945238959482721, 0.43443055857933605
-0.8525606838853195, -0.005901923197249086, 0.4061449399488728
-0.8576599367983484, -0.03342580545471832, 0.3825984982863143
-0.8565780964845168, -0.07672900911529025, 0.3646190988876314
-0.848719949865691, -0.13606027893797298, 0.353019754482931
-0.8355383871120926, -0.19979289969505248, 0.34957476444144214
-0.8203728111492798, -0.2513457069025869, 0.3547971723321285
-0.80678036102885, -0.2834311185343582, 0.3652520693667601
-0.7967703814566985, -0.3000267968135948, 0.37580967078052957
-0.7906529690837699, -0.30805747759104685, 0.383210862867956
-0.7880550885187151, -0.3123928507814696, 0.3863039638794381
-0.7888453429707014, -0.3159636992880194, 0.38444595333516113
-0.7935893916481682, -0.32118580832854565, 0.37623603134798084
-0.8034941811919916, -0.3306922620084528, 0.3592811597976809
-0.819352214596333, -0.34634099212101305, 0.33189531228540553
-0.8393024737108141, -0.36649002114448764, 0.29706938947642453
-0.8579863640646478, -0.3853805358414512, 0.26407652630475614
-0.870347457821309, -0.3981711301921553, 0.24170994373483154
-0.8757805720006894, -0.4051104918636084, 0.23087380423599796
-0.8767314059976944, -0.4090029995915957, 0.22720356426045044
-0.8754300329538404, -0.41190376475907187, 0.226812185030397
-0.8729238426905515, -0.4147960406021594, 0.22774870049925186
-0.869447911494275, -0.41824983538471794, 0.22910714397962015
-0.864790955878346, -0.4228931981398642, 0.2299303516056213
-0.8584354874982124, -0.42983424602844444, 0.2276851676177228
-0.8497265322438093, -0.44116551777762447, 0.21534079432802772
-0.8386791246817807, -0.45972978428933575, 0.17857563783713282
-0.8275771135586321, -0.4859130693809624, 0.10376043269026294
-0.820390835494654, -0.5131862542092333, 0.003372245054488841
-0.8181327586247791, -0.5325823961308861, -0.0827068648719026
-0.8182256252258854, -0.5423230365884982, -0.13236941081530215
-0.8186951208314712, -0.5461607311208326, -0.1544384645245467
-0.8190541030965311, -0.5473864523902131, -0.16306239899647898
-0.8193185280280025, -0.5475504186782691, -0.16628491618368924
-0.8195797489910706, -0.5471897276908332, -0.16757409299642853
-0.8199309101806501, -0.5463782621880758, -0.16829393065173162
-0.8204775610116332, -0.5449453707346524, -0.1690008899133722
-0.821362256700054, -0.5425120152732583, -0.16999402092303326
-0.8227889038542057, -0.5384345541033944, -0.17152909641366
-0.8250225587424342, -0.5317613226091473, -0.17387597522038467
-0.8282701314281085, -0.5215389595305787, -0.17720738165189454
-0.8323514948543294, -0.5078757617170216, -0.18127270368480877
-0.48087178003820125, -0.258335846472649, -0.8235701519056342
-0.4812822647393156, -0.2588489542678489, -0.8229980890182668
-0.48258694440920735, -0.2604988939090194, -0.821173368015202
-0.48507207026417604, -0.2644861841100739, -0.8172933119606635
-0.4891486495295975, -0.27410761135141515, -0.8094676503310962
-0.4950409041749041, -0.29629522703936045, -0.7942687890176442
-0.5022327895471375, -0.33888888487954183, -0.7684993330633979
-0.5092980137894093, -0.3993016940241057, -0.7346401124120346
-0.514612231201501, -0.45910071124648294, -0.7027423835013639
-0.5172818735554535, -0.5002050099838898, -0.6820397546151692
-0.5175021260506057, -0.5199704990728731, -0.6735669304782199
-0.5161799843208329, -0.5261157715796835, -0.6728460450467472
-0.5142590146791258, -0.5263308522408091, -0.6753656070570995
-0.5123614398353131, -0.5247795704885102, -0.678559713186105
-0.5107785592062412, -0.5230759225568961, -0.6813754528600569
-0.5095783170616759, -0.5216643377769943, -0.6835326126448552
-0.5087229190277989, -0.5205539178752545, -0.6850477802784976
-0.5081571338496595, -0.5195797212751989, -0.6859718891140265
-0.5078689967516574, -0.5183792872299526, -0.6862050511338011
-0.5079735082978409, -0.5160322277845332, -0.6851736117362405
-0.5089467349396477, -0.5098079117787382, -0.6808503335100005
-0.5123580142776943, -0.4910811579803715, -0.6665587080572076
-0.5226765671214557, -0.43472438953074366, -0.6226131242723743
-0.5483141551213376, -0.29118709017600697, -0.5098685992269324
-0.593062483022041, -0.03288991242419682, -0.3056759962480862
-0.6426635664120296, 0.26480191367584616, -0.06794747118645351
-0.6771482358686537, 0.4862102069983645, 0.11218286738149028
-0.6924226197899737, 0.6005904525250453, 0.20875392592822073
-0.696190306004772, 0.6454876394246986, 0.2496830613822064
-0.6957899466017198, 0.6600727746874546, 0.2651577093288352
-0.6946567118309889, 0.6643740802236919, 0.2710712981420678
-0.6937643860084491, 0.6656701227292282, 0.2735709521056272
-0.6932052229512682, 0.6661255947193904, 0.2747427538958909
-0.6928834700372563, 0.6663293425384713, 0.27530154241810634
-0.6927079449141174, 0.6664513087700004, 0.27551045973105676
-0.6926223675705627, 0.6665566027782955, 0.275447492069635
-0.6926012438165634, 0.6666849445716211, 0.2750698636335103
-0.6926457155130294, 0.6668615603291304, 0.27421485875319335
-0.6927894313001823, 0.6670358052007952, 0.27260867572098413
-0.6931248352935235, 0.6667922783513358, 0.27005464479713476
-0.6938717370799294, 0.6644299037807866, 0.26723845461617735
-0.6955184966111627, 0.654992578595308, 0.2676062282020646
-0.6990163507317353, 0.6281563021979173, 0.2793300852763451
-0.705806597636017, 0.5694964520848673, 0.3138939985848356
-0.7170943190676808, 0.46963903829553244, 0.37825088634108717
-0.7319465715977237, 0.3401953132026473, 0.46363305278119193
-0.7461206006390567, 0.2182120925672703, 0.544631982634589
-0.7552286579499451, 0.13813181929567284, 0.5988082058231957
-0.7591507414775823, 0.10136144680959885, 0.6246568308941784
-0.7606252279011548, 0.08831077632546379, 0.6336101538399338
-0.7616439718259574, 0.08377669677141972, 0.6350727579676144
-0.7629545271685159, 0.08155569222964536, 0.6331206315313257
-0.7648508860892316, 0.07965564278331881, 0.6288931389179188
-0.7675571919662131, 0.07736653775988453, 0.6223984684819829
-0.7712971893266851, 0.07432365964512158, 0.6132541804749604
-0.7762464461268593, 0.07025419865528236, 0.6010446773913024
-0.7824150730633044, 0.06485448786990199, 0.5856068235533747
-0.7894717743824056, 0.057490379464260014, 0.567252266545168
-0.7964578911483459, 0.04643438963925836, 0.5469357351815859
-0.8013408262252815, 0.027605031547282242, 0.5264910190493794
-0.8008216210814169, -0.006191254607824578, 0.5086440553991072
-0.7913789228329791, -0.062450184404773894, 0.49638896374169333
-0.7718557041792506, -0.14017489490496182, 0.49237778022942663
-0.7456886553425149, -0.22298976339089013, 0.49819177881962723
-0.7195310332825677, -0.28898831976338135, 0.5122705037673394
-0.6987696422331945, -0.3291061335807207, 0.5292921280091092
-0.6850126478909787, -0.34905835800176166, 0.5437077682106809
-0.6773739955339151, -0.35801524685712344, 0.5527860609953754
-0.6746715921874541, -0.36196725489494264, 0.555879064451052
-0.6766350337281462, -0.363896809366834, 0.5522868230231575
-0.6843757282706592, -0.36556357360497144, 0.5396975669934229
-0.7003812307472129, -0.3687156092472372, 0.5136525460252923
-0.7271752594745946, -0.375317487144476, 0.46941680863393576
-0.7636395155073934, -0.38635125516315966, 0.4080290716510427
-0.8018101275757834, -0.40004040718705186, 0.34214154426507315
-0.8308036050108968, -0.4126963161517225, 0.29001667243966084
-0.8456536554772228, -0.42234605315046087, 0.26033842697558063
-0.8490769902271316, -0.42987029518090175, 0.24863235017907662
-0.8459069803601011, -0.4368771793790573, 0.24669255422790567
-0.8392789447830818, -0.444387326946539, 0.2490534058676477
-0.8304648552361333, -0.4530187807999003, 0.2529831536331333
-0.8197749797358344, -0.4633682330022889, 0.25646519821173336
-0.807394155502428, -0.4761678191653348, 0.25578488494642915
-0.7944008001959761, -0.4921034884323708, 0.24229938229709283
-0.7841613368221448, -0.5108047802731847, 0.200761580425906
-0.7820851575166775, -0.5291267852908094, 0.11933388104171763
-0.7901362548447171, -0.5419984521872088, 0.013453019138198937
-0.802182772414918, -0.5476444024586474, -0.07658869126430602
-0.8111465488850692, -0.5489506566523564, -0.12908942052774636
-0.8158018808592047, -0.5489003725897281, -0.15279467169515834
-0.8178288007902942, -0.5486528168543703, -0.16216494457132666
-0.8186453966043722, -0.5484289983114392, -0.16563458256830013
-0.8189681557559251, -0.5482057210720278, -0.16687388396647299
-0.8190961263090061, -0.5479175630465175, -0.16729185383738668
-0.8191306365488348, -0.5474868338952921, -0.1673715203182789
-0.8190633757163406, -0.5468174655335548, -0.16720400949145736
-0.8187719640458924, -0.5457836749657098, -0.166628269338585
-0.817957435582081, -0.5442237037502171, -0.16518857659633612
-0.8161232681682311, -0.5419957876174387, -0.16212911271104893
-0.81282697859429, -0.5391961094105353, -0.15680673804489004
-0.4558843192526436, -0.23753828994660542, -0.8531889629900717
-0.4560587867006308, -0.23773627085683774, -0.8529562692264935
-0.45663215072261193, -0.23841036658324719, -0.8521816449730916
-0.45783533210446864, -0.24020399288757888, -0.8503798939487642
-0.46023097020993864, -0.24535943396883653, -0.8460647304089278
-0.4649229950412934, -0.2602629383156377, -0.835432199791031
-0.4732400723306109, -0.29613189627601577, -0.812348823721369
-0.484995846317323, -0.35775418991133134, -0.7749165985675254
-0.49698371959190235, -0.42810006895143743, -0.7336024319851091
-0.5053290825489732, -0.481235279186317, -0.7033267015026679
-0.509056053166544, -0.508588091575217, -0.6886350410780872
-0.5097648149198402, -0.5183687581100767, -0.6843406064620595
-0.5092660894267718, -0.5205185942506303, -0.6843690092315927
-0.5085443408940455, -0.520366761733655, -0.6854768196681553
-0.5079390411727605, -0.5198074567571321, -0.6865399120324626
-0.5075030327914023, -0.519314886747929, -0.687325833439309
-0.5072066828035385, -0.5189390904402912, -0.68785510047968
-0.5070161885124685, -0.5186235643967697, -0.6881714546061485
-0.5069190911029363, -0.5182449236184181, -0.688257779433529
-0.5069510060059323, -0.5174841678922658, -0.6879201796229347
-0.5072890310842656, -0.5152969829630988, -0.6863737445188752
-0.5086243513696074, -0.5077737956266637, -0.6805459034533244
-0.5135482398056703, -0.4799256859079786, -0.65851403664619
-0.5295718477928375, -0.3868514113351845, -0.5843616589442892
-0.5666724918336302, -0.165561840428661, -0.4072266206171152
-0.6188963373547574, 0.154748284253526, -0.1492410061196382
-0.6621865694089469, 0.4308355357028164, 0.07539567074857677
-0.6843861520787591, 0.5827628934553511, 0.20124533020235852
-0.691794229945784, 0.6419456884773326, 0.2519559787083819
-0.693258002525245, 0.6600234487782777, 0.2685195598530532
-0.693180255408754, 0.664790075436748, 0.27350544241551117
-0.6929082515703545, 0.665988426255762, 0.27509152371408696
-0.6927086774149241, 0.6663112445187827, 0.2756785847381379
-0.6925904040369492, 0.6664150998808238, 0.27592471801685003
-0.6925264835235849, 0.6664549140059962, 0.27602004845876216
-0.6924972861781622, 0.6664659514972882, 0.2760210185328368
-0.6924953492669903, 0.6664427589082669, 0.2759333824062924
-0.6925275736996754, 0.6663245697678228, 0.2757434403957868
-0.6926284538001971, 0.665863083381548, 0.2754926487300459
-0.6929083849420444, 0.6641213524926632, 0.27559829055787644
-0.6936912168263788, 0.6579628695549278, 0.27793909465617267
-0.6957797492566571, 0.6390887593753781, 0.2881683305310672
-0.7006234078268748, 0.5926364363254037, 0.31701450535155473
-0.7097573447162777, 0.5049890530583134, 0.3743288441771595
-0.7232109851824968, 0.3808926848172687, 0.4560601511308985
-0.7380335782938866, 0.2519267145910277, 0.5394794872433186
-0.7495486069146547, 0.15693353693629655, 0.5993611528982541
-0.755530090568962, 0.10874256053314603, 0.6293558879297585
-0.7576454118683368, 0.09146053136222614, 0.6402403097725287
-0.7583136061279712, 0.086427105285302, 0.6432604874514407
-0.7586979916011417, 0.08486346858535553, 0.6436265928856143
-0.7591466076275019, 0.08412345244936217, 0.6429245317801602
-0.759785057138087, 0.08348567989199021, 0.6414878598177662
-0.7607111600048835, 0.08269404289998125, 0.6392523111251125
-0.762034818975241, 0.08158342356977881, 0.6359885516872877
-0.7638625969910876, 0.07995442170707658, 0.6313938274042751
-0.7662188028875897, 0.07741723299039573, 0.6251922500607627
-0.7688446028560555, 0.07293504997239374, 0.6172692769495045
-0.7707429800315301, 0.06368714527669565, 0.6079010349709939
-0.7693869648961718, 0.04328598644351891, 0.5982907325021394
-0.7603100243956333, 0.001288121593102241, 0.5911398983155103
-0.73904297335798, -0.07125928177935198, 0.5900578068617744
-0.7059662654697942, -0.16876645638103083, 0.5974773202000744
-0.669128909849227, -0.26537983972891627, 0.6124277822816894
-0.6388458251799125, -0.33429802104322187, 0.6302458182120072
-0.61951189017711, -0.3705439575379205, 0.6455802229351439
-0.6091939403304489, -0.3857624531498659, 0.655850736252254
-0.6044523008321715, -0.39147470504304477, 0.661249129407544
-0.6031471605009193, -0.39353558254821047, 0.6625988008993934
-0.6047586725497504, -0.39420640556432057, 0.6597679190516723
-0.6102874556452017, -0.3944700177460336, 0.6507287728915441
-0.6224103375480311, -0.3952867396070355, 0.6306800713279462
-0.6450361825175929, -0.3983350675124433, 0.5922636473549905
-0.6803487230975502, -0.40602882323921285, 0.5301003794783321
-0.7235288252195151, -0.41988756331936483, 0.45023192744105706
-0.761997496905768, -0.4382414792065733, 0.3733418854013643
-0.7844762034883774, -0.4571701933849341, 0.32021575056148494
-0.7894613905023763, -0.47436714959527215, 0.29530982793632765
-0.7825158588072884, -0.49017558784364607, 0.28980718550093093
-0.7694421395286933, -0.5056267702930897, 0.29375135190039653
-0.7536687293851531, -0.5212987292118929, 0.30097877844889187
-0.736986544235517, -0.5373337651717758, 0.3076274967456696
-0.7210170512983286, -0.5534461304377157, 0.30904714750420875
-0.7087533958638184, -0.5684937299506205, 0.29644009216384026
-0.7057777864399161, -0.5797549197921105, 0.25519878641974725
-0.7184715803629268, -0.583252759736512, 0.1727596668009022
-0.746327884573355, -0.5773814917503582, 0.059815921632706895
-0.777359228857957, -0.5666679785205185, -0.04505166586008087
-0.7994135393160507, -0.5576483339014116, -0.11252481635207409
-0.8108478955335094, -0.5525522071046169, -0.1454057180018139
-0.8157482977735212, -0.5502603003457801, -0.15897520900387677
-0.8175997711140373, -0.5493763616876974, -0.1640513100463527
-0.8181516503487601, -0.549128923475941, -0.16571563362577413
-0.8180794542305702, -0.5492197006550356, -0.16593363302367584
-0.8175191648019419, -0.5496234097577403, -0.1652697352139224
-0.816255832987505, -0.5505359581124097, -0.16356241078327458
-0.8136607763625728, -0.5524621198501959, -0.15999535361414716
-0.8085158895913414, -0.5563626284890135, -0.1529120424856195
-0.7991955282415272, -0.5634992613303215, -0.14008312002491904
-0.7849646520146049, -0.5744045580888354, -0.12049476247491162
-0.44814278983917094, -0.23109961933912163, -0.8623627798958972
-0.44819404511301947, -0.2311606254051238, -0.8622929911995593
-0.44836640009196527, -0.23137643272757497, -0.8620540121745882
-0.44875388602844873, -0.23201973290916025, -0.8614447167324671
-0.44967799089457045, -0.23428648291141072, -0.8596625641899636
-0.45213456439559485, -0.2427641406327503, -0.8538392816447163
-0.4583192421452529, -0.2692061924435992, -0.8369546961215485
-0.4701898429917824, -0.3259517297171362, -0.8019994929285179
-0.48535487918869946, -0.4023437593226579, -0.7558083709447946
-0.4977486025587925, -0.46634915063735227, -0.7176126735583452
-0.5043422411644037, -0.5012367636788738, -0.6971865601161794
-0.5066688835526072, -0.5144276625561418, -0.6898310754727754
-0.5071370319973224, -0.5180367917079914, -0.6881425278708138
-0.5070687383010899, -0.5186795606997503, -0.6881109577682213
-0.5069193477180344, -0.5186453855072236, -0.6883733621484571
-0.5067956267399698, -0.5185181707247607, -0.6886072568532832
-0.5067082891462323, -0.5184060201842998, -0.688770279070097
-0.5066514284781545, -0.5183082552927978, -0.6888676165093219
-0.5066230652034319, -0.5181852096138593, -0.6888892396519116
-0.5066383995616854, -0.517913211107935, -0.6887541350592518
-0.5067735125310652, -0.5170308767847441, -0.6881058750063096
-0.5073632398468464, -0.5135544176834353, -0.6853595401119932
-0.5099183279804781, -0.4983702780375714, -0.6731683697083053
-0.5202090168704699, -0.43598637623085146, -0.6228345882686457
-0.55012921018339, -0.25173686291924824, -0.47386572505764346
-0.601428825903433, 0.0685550221767335, -0.214336166811704
-0.6506652624615316, 0.3813799514489841, 0.04015515546469534
-0.6787268983322436, 0.5648782236269091, 0.1905297119456433
-0.6892329424619782, 0.6374502803984858, 0.250801567297841
-0.6920358247379442, 0.6592495175512517, 0.2693796511863596
-0.6925528780141419, 0.6647728779277715, 0.2743460142176838
-0.6925703071505874, 0.6660623510635623, 0.27564643830677027
-0.6925209056134239, 0.6663607327821939, 0.2760264615323325
-0.6924829223704071, 0.6664258745611044, 0.2761648676833838
-0.6924625267542032, 0.6664176057983813, 0.2762347329211482
-0.6924572594248805, 0.666349110355106, 0.27629670191814354
-0.6924693644597981, 0.6661635334517763, 0.27640452305612184
-0.6925136865865814, 0.6656774331152149, 0.2766790443647711
-0.6926401025514014, 0.664320135008986, 0.27749954940238064
-0.6930075497229575, 0.6602698398584506, 0.28012569797712394
-0.6940836802000565, 0.6481863129764781, 0.2883420304399223
-0.6969646630892941, 0.615941956255813, 0.3108048498804838
-0.7033134648337457, 0.5469862245906199, 0.35903002334256623
-0.7141455287640761, 0.43644194007091164, 0.434994387587503
-0.7281725817112165, 0.3064359591883224, 0.5205270826416185
-0.7417288082143754, 0.1951094867223649, 0.5886174741634449
-0.7511326987948255, 0.12694653718341747, 0.6263966775957444
-0.7556291443397015, 0.09761265883624115, 0.6409990074802996
-0.7571511741078638, 0.08840843358889157, 0.6451647609265062
-0.7576004096669391, 0.08595920139416996, 0.6461204152564985
-0.7577896360093026, 0.08524660883538641, 0.646203352679765
-0.7579516512161175, 0.0849433359041537, 0.6459661379436671
-0.7581587504873252, 0.08471134323929394, 0.6455035412716085
-0.7584523311252374, 0.08443430915612761, 0.6447823638998528
-0.7588709368504876, 0.0840271801539551, 0.6437102278496784
-0.7594380855513932, 0.08334036718491601, 0.6421588948623737
-0.7600839856968293, 0.08195381295223841, 0.640007517908389
-0.7603941937111596, 0.07853058478418241, 0.6372457692801398
-0.7589775512534483, 0.06916712760276517, 0.6342157212022366
-0.7524100789991546, 0.044824427215719456, 0.632152779855814
-0.7350224508023677, -0.008612763818284653, 0.6336907704366272
-0.7026447845315882, -0.0999446643504249, 0.6417744155607839
-0.659923463653634, -0.2138976528683348, 0.6564829093627762
-0.6207243296209376, -0.31251435206389705, 0.673383984715765
-0.5956434697860699, -0.3704756952907975, 0.6869789199432099
-0.5837912427812935, -0.3944163735198284, 0.6952189179101531
-0.5791514114363637, -0.4021256980108711, 0.6993112771786207
-0.5775193269804143, -0.4043774047218596, 0.7009976765040155
-0.5772177873272799, -0.4050500539321033, 0.7012015635395279
-0.577934452771758, -0.4052790430265666, 0.6998964295205552
-0.580228938941328, -0.40553355905881067, 0.695885075023621
-0.5857572522261731, -0.4064980794388842, 0.685898499611305
-0.5976125077481014, -0.4098881508733645, 0.6633477857620134
-0.6192286180405447, -0.4192596741472952, 0.6192808963543806
-0.6500664023125462, -0.43911835145307737, 0.5500393170037131
-0.6813059842988799, -0.47045750423836447, 0.4684563976385492
-0.7003450871921243, -0.5071387511849165, 0.4004762353527972
-0.7019144424278981, -0.5407435876907966, 0.3629059094393085
-0.690634620123758, -0.5678736736401765, 0.35199016706667036
-0.6738713726816694, -0.5896130733545933, 0.3550366204512828
-0.656526987050841, -0.6076360706739338, 0.3624104252794608
-0.6409720646296475, -0.6227991284745087, 0.3688505211140056
-0.6288035175506105, -0.635125539578709, 0.3701832406838605
-0.6226231149384276, -0.6435749308729773, 0.359699825645617
-0.6274436972242938, -0.6455241669838346, 0.32538916099048526
-0.6498412315652625, -0.6372031737993558, 0.2527153313529054
-0.6912741122816237, -0.617353267074243, 0.14061109222794974
-0.7401728902582528, -0.5919928526447068, 0.018043321667049906
-0.7791548161035091, -0.5709835382442818, -0.07562801478706405
-0.8015055880398148, -0.5586822945149896, -0.12795366362611346
-0.8116201310724594, -0.55308932418204, -0.15133856186062475
-0.815448648089194, -0.5510549876157147, -0.16032922792788504
-0.8164319687127453, -0.5507241978811462, -0.1630862791134999
-0.8159284633192224, -0.5514199512886269, -0.162932742553798
-0.814129743043209, -0.553198380587739, -0.16069788979045885
-0.8104320570892745, -0.5567208862679777, -0.15577729031804732
-0.8033887897155535, -0.5633900099033534, -0.14629511354421332
-0.7907275207873512, -0.5753601117659434, -0.12921094567872124
-0.7704224677982675, -0.5945208909510464, -0.10179631909448518
-0.7432098105727993, -0.6201193349649389, -0.06504077604470217
-0.4461087422408417, -0.2294107409148644, -0.864771580294568
-0.4461209830796734, -0.22943335640014398, -0.8647506377724212
-0.4461646282168437, -0.22951418779974322, -0.8646767392515793
-0.44626923714172045, -0.22978501412545824, -0.8644647665794497
-0.44657406660633053, -0.2308917345929639, -0.8637083798214379
-0.4476966523077548, -0.2358309655157103, -0.8605638669301519
-0.45165621731753414, -0.25471158898549134, -0.8489028670040416
-0.4617194505541565, -0.30407314819256387, -0.8188004442867658
-0.4775446004461222, -0.3818908824904627, -0.7715756104357222
-0.4924573211484745, -0.45422680187922343, -0.7277330312471011
-0.5013013151706626, -0.49591143150162814, -0.7024656559886037
-0.5049444663696488, -0.5121897054969988, -0.6926021965181728
-0.5061201747602002, -0.5169315721224853, -0.6897467202503575
-0.5064487282400969, -0.5180366129310061, -0.6891075776321333
-0.5065293463070506, -0.5182388501191392, -0.6890176670267876
-0.5065420059879189, -0.5182519909812963, -0.6890372210922897
-0.5065373622261902, -0.5182320643026427, -0.6890680087337939
-0.5065302950158319, -0.5182057911775219, -0.6890885336511952
-0.5065271943363594, -0.5181634146434394, -0.6890851355992416
-0.5065384478340773, -0.5180468100155584, -0.689011708370193
-0.5066050073926549, -0.5176012247665739, -0.6886625729313777
-0.5069205408644115, -0.5156094588658159, -0.6870454398803747
-0.5084622973848418, -0.5058658275042045, -0.6790847995567922
-0.515624998883129, -0.46029988427559526, -0.641822412637159
-0.540037316931102, -0.30485664099845333, -0.5148980557317316
-0.5886069008930382, 0.003543780544937989, -0.26366801056787825
-0.6412151355132321, 0.3369648952274974, 0.007497967976273175
-0.674070031121724, 0.5459032102921529, 0.17745272333584067
-0.6873668340432204, 0.6315992439522713, 0.24736648941090936
-0.6913035681278684, 0.6577775154062089, 0.26888349751196694
-0.6922381877172126, 0.6644453467583844, 0.27445741870232854
-0.6924199528717663, 0.6659904411479641, 0.27580848585597173
-0.6924438610733658, 0.6663287288533806, 0.2761577521642794
-0.6924428133154708, 0.6663729082875922, 0.2762854505400032
-0.6924442601892549, 0.666298973443331, 0.276392192049331
-0.6924570753034015, 0.6660814792534158, 0.27657585264482387
-0.6924941349010413, 0.6655557890553702, 0.2769825727595519
-0.6925888727494011, 0.6642706741705955, 0.2779636570343296
-0.6928355313479071, 0.6609765455768106, 0.28047694675098267
-0.6935019414450142, 0.6522034037473623, 0.28716732081158336
-0.6952656349622371, 0.6295005012382906, 0.3044063566535682
-0.6993870422403357, 0.5783710711756802, 0.34281397498193833
-0.7071347241065029, 0.48799519692823523, 0.40920289509727764
-0.7184277051428791, 0.3690037507878848, 0.492799801100678
-0.7313492508824471, 0.25222979075765856, 0.5681586019724892
-0.7430599835497201, 0.1651921255962411, 0.6165982308415112
-0.7511854128889875, 0.11585943790780721, 0.6384409977015247
-0.755292260245983, 0.0948832444111034, 0.6452415145041032
-0.7568234258652907, 0.08801047787326703, 0.6467542421486357
-0.7573062856609615, 0.08604452702158934, 0.6470086864314603
-0.7574703473225424, 0.08545137781954537, 0.6470053354285394
-0.7575500171470377, 0.08522573144360845, 0.6469237165424077
-0.7576147771802497, 0.0850953036280712, 0.6467842249088527
-0.7576890844256379, 0.08496774279281943, 0.6465723285266936
-0.7577799915820814, 0.08477534006062389, 0.646258762469562
-0.7578607930571764, 0.08437163222031029, 0.6458100618811109
-0.7577747825343029, 0.08326576258667105, 0.6452250308530438
-0.7569093802555138, 0.07976517015341694, 0.644651044427644
-0.7533558900308267, 0.06875732768601461, 0.6446807769846493
-0.742617067348795, 0.038362545394339455, 0.6468793061487864
-0.7180088008925555, -0.028723805339165825, 0.6538881535853185
-0.6770505642052871, -0.13803744981119515, 0.6673463765586137
-0.6303161721730991, -0.2604280855648467, 0.6843078773958797
-0.5954512598085148, -0.3494118885574915, 0.6983642775618333
-0.5785355400470031, -0.3907484268054755, 0.706211985127408
-0.572786694709567, -0.40374645819311256, 0.7094461286950072
-0.5711744715425118, -0.40694979593732605, 0.7105877272571556
-0.5707439583147293, -0.4077051820247941, 0.7109442278329517
-0.5706938034918089, -0.4079208739596305, 0.7109127680854123
-0.5709103975125517, -0.4080686731134934, 0.710427563720252
-0.5715982255516062, -0.40844088229114656, 0.7089085535134297
-0.5734143813597723, -0.40973116754549715, 0.7045879155707176
-0.5778244383754298, -0.41396051464782024, 0.6930082792894262
-0.5869893466933238, -0.425964814813259, 0.6656607982194213
-0.601571279496613, -0.45335814591796825, 0.6135151944342037
-0.6168961366927396, -0.5001174665484812, 0.5398101731556363
-0.624241754368324, -0.5569729981431802, 0.46807196513466637
-0.6196511354624644, -0.6063993884655756, 0.4229613176529105
-0.6074543819821824, -0.6398909809809187, 0.4065892295734053
-0.5939146220465146, -0.6605574613401148, 0.4057765223004401
-0.5823394005560103, -0.6737536929629031, 0.4095377723381865
-0.5735751469835687, -0.6826816582896682, 0.41280237340415155
-0.5679429775834925, -0.6886115698060262, 0.4128153100542847
-0.5667153929655215, -0.6913660602963534, 0.40556512873474193
-0.5733949949441738, -0.6891361475184552, 0.38270585643258614
-0.5942975147103269, -0.6783173899332172, 0.3302045727623581
-0.6351318954988013, -0.6555453173768414, 0.23586120691502757
-0.6916350861289108, -0.6232277362036736, 0.10948108246361192
-0.7463661420591088, -0.591578406536333, -0.010988874150285202
-0.7838355611910982, -0.569841985629549, -0.09277842960878055
-0.802954610357248, -0.5588678399043628, -0.13455121263821732
-0.8105138574928745, -0.5548242917298388, -0.1516093452786662
-0.8121740472365004, -0.5545291968820314, -0.1565470896542916
-0.8104572893725428, -0.556722137218118, -0.15526486795337482
-0.8056595107248403, -0.5616207535635954, -0.14920042654282026
-0.7966162824924586, -0.5705627159912021, -0.13718680530379662
-0.7811857048452722, -0.5857196120814828, -0.11649275390089275
-0.7573453787166712, -0.6090944312096578, -0.0844533951583574
-0.725398195370674, -0.6403859975682232, -0.04149490103453424
-0.6895948110501596, -0.6754117514911299, 0.006661302005576777
-0.44559906147561745, -0.2289915742560891, -0.8653728254323547
-0.44559802545835697, -0.22900710190516085, -0.8653650530099968
-0.4455995651025769, -0.2290587817111354, -0.8653363801866035
-0.4456059610570721, -0.22923900938050032, -0.8652393733280324
-0.4456632330185422, -0.22998232998097506, -0.8648322510687956
-0.446101843218292, -0.23338745239095057, -0.8628913955069397
-0.44842926120741144, -0.24762713159356145, -0.8545426783263015
-0.45617329811212826, -0.2900525266882837, -0.8292830491078117
-0.47100215674204077, -0.3659406221021981, -0.7836295014194306
-0.4871727343516545, -0.44352388793678815, -0.7364558966964103
-0.4979764432220456, -0.4909986629300028, -0.7071299870788993
-0.503079982469094, -0.5102684758547674, -0.6948589450537087
-0.5051223474387604, -0.5161454025355717, -0.6908675804413709
-0.5059211004924312, -0.5176667446933357, -0.6896981244811785
-0.5062446405700848, -0.5180408464945243, -0.6893485713902172
-0.506381787599018, -0.5181364912024646, -0.6892339643965438
-0.5064422061828433, -0.5181622325767496, -0.689192035305252
-0.5064694758872081, -0.518166592970211, -0.6891731279778177
-0.5064825016040775, -0.5181550977177696, -0.6891538905915392
-0.5064933261950558, -0.5180963309691967, -0.6890967113610343
-0.5065280937385481, -0.5178203645923245, -0.6888516686127569
-0.5067117821911207, -0.5164475296959221, -0.6876732155460132
-0.5077289819278012, -0.5092114607899844, -0.681559281996297
-0.512989268021132, -0.472810231676437, -0.6510746018155048
-0.5330124896270088, -0.3380685588748152, -0.5392469082442932
-0.5776292630376162, -0.04710950501989131, -0.3002402195397146
-0.6315020621568866, 0.29382255368442906, -0.023016029745352773
-0.668641932256381, 0.5231403677976231, 0.16183576935857852
-0.685105585485548, 0.6229681989741397, 0.24176215534038306
-0.690469361771922, 0.6550444890911434, 0.26730272548245254
-0.6919244718823291, 0.6636086487918573, 0.27409078094113354
-0.6922916475135212, 0.6656954165959594, 0.27576209436950916
-0.692388540343954, 0.6661653664943045, 0.2762094984591459
-0.6924227382319214, 0.6661877520625858, 0.27641357318860105
-0.6924496198999448, 0.6659640439333113, 0.27666128691435843
-0.6924951383613636, 0.665372302878702, 0.277157458870696
-0.6925946834678295, 0.6639788943911625, 0.27827530577581777
-0.6928275654806476, 0.6606876903772471, 0.2808927512291404
-0.6933897510509895, 0.6527775340637585, 0.2871623667618483
-0.6947433026988477, 0.6339558492861576, 0.3020202598409427
-0.6977609628787479, 0.5928779328106107, 0.33421844343164253
-0.7034297327602494, 0.518607903193863, 0.391656422488012
-0.7118893621601607, 0.415451849362962, 0.46925518482697814
-0.7220672188813707, 0.3068508384930076, 0.546157279734972
-0.7326130392729123, 0.2163510340998779, 0.602392198808843
-0.7423298432870682, 0.1530499810855597, 0.6327776551764104
-0.7498430794705698, 0.11520619973664278, 0.6444017088026224
-0.7543061059656682, 0.09655029102409467, 0.6472053005861701
-0.7562965155802431, 0.08912711333966322, 0.647478060026178
-0.7570185211277229, 0.0865767285815493, 0.647390762317388
-0.7572588795866417, 0.08570847490791912, 0.6473258613243529
-0.7573320613034504, 0.08537479055306105, 0.6472932382881968
-0.7573394653598482, 0.08521110850264828, 0.6472747990338023
-0.7573084282454826, 0.08508690817631713, 0.6472609318986677
-0.7572305899060051, 0.08491497038726027, 0.6472506362730208
-0.7570413404520624, 0.08451540692342675, 0.6472612723601141
-0.7564973253699063, 0.08327279154130292, 0.6473727721532258
-0.7547645537794824, 0.07904111317567407, 0.6478700965613231
-0.7493777273952024, 0.06535495008272847, 0.6495956850386794
-0.7348361961471597, 0.027576800045334842, 0.6544297595819862
-0.7040464536844625, -0.053410892660907316, 0.6648466014611245
-0.6575077835630257, -0.17649865998994926, 0.6808594024269523
-0.6114349326224908, -0.29834968071935486, 0.6971012802231632
-0.5833313468676671, -0.372267173677364, 0.7074016729880311
-0.5727536326377803, -0.3997240491930111, 0.7115360921527472
-0.5700134693847275, -0.4066524868315818, 0.7127249890115278
-0.5694078279376638, -0.40811308339008534, 0.7130298184435551
-0.569271094956435, -0.40843572332164835, 0.7130993550390098
-0.5692527706448273, -0.4085440700951806, 0.713059186114463
-0.5693001437722904, -0.4086795946637183, 0.7128471241493542
-0.5694570857659843, -0.40909300130612697, 0.7121498534245947
-0.569888556933568, -0.41051900973883654, 0.7099272812414913
-0.5709948040390378, -0.41524945423934534, 0.7031050602060828
-0.5733766312592308, -0.4292317857306795, 0.6844077991574363
-0.5769290411963703, -0.4628280987784738, 0.6430031573930716
-0.5791354597197234, -0.5223409386941187, 0.5762084023112615
-0.576208273373347, -0.5941798518314347, 0.5044658209437315
-0.5680868814948608, -0.6516255496764987, 0.4562249913537099
-0.5587148601421678, -0.6839883683028664, 0.4365766241354151
-0.5511224423859781, -0.6991858314729902, 0.4323046535201295
-0.5458415676338899, -0.7064526491328857, 0.43270432041728996
-0.5424172539454687, -0.7103424811749922, 0.4334916987271633
-0.5406164994934246, -0.7124532671534377, 0.4329004625536884
-0.5410192884270275, -0.7129139606826647, 0.4287505784408435
-0.545752006193128, -0.7106217114910881, 0.4161095798419645
-0.5595910027667469, -0.702795990878974, 0.3846467844213213
-0.5897271216323782, -0.6851899513423704, 0.31902886216098925
-0.639911906732767, -0.6556167951882873, 0.2112791771006105
-0.7007887741871374, -0.6197321887950551, 0.08116775158404328
-0.7530038645042837, -0.5891613854704157, -0.030516795821978086
-0.7849668805758464, -0.5709041730221774, -0.09960781451529502
-0.7988810963939205, -0.5637973267304158, -0.1312502255010031
-0.8014078136557999, -0.5641511342785138, -0.140165557198925
-0.796658301827711, -0.5699812974894152, -0.13597249971341066
-0.7855014422322146, -0.5814469703508132, -0.12182921288562754
-0.7670180220833047, -0.5998787928786478, -0.09732292153494075
-0.7403780026847894, -0.6262606127160188, -0.06165647779993739
-0.7068465285127233, -0.659404448347116, -0.016650631851139835
-0.670610407349564, -0.6951969974899924, 0.032022303921651785
-0.6371580629442457, -0.7282232076664769, 0.07696891595335663
-0.44546822977104533, -0.22889336888543682, -0.8655217101725549
-0.44545749683457525, -0.22891516045653332, -0.8655170118431251
-0.4454316612933991, -0.22897924230559885, -0.8654998357277286
-0.44536837038257315, -0.2291832564855855, -0.8654350466093963
-0.44523750334502366, -0.2299208358415712, -0.8651467704824393
-0.445134615665467, -0.23292251759383178, -0.8637320504504891
-0.4460092554307621, -0.24498877033232305, -0.8573172558940773
-0.45101721050935906, -0.28236224016924666, -0.8361515284646625
-0.46332951243908677, -0.35433993589564705, -0.7938897422830214
-0.4794166054135892, -0.43366814946327426, -0.745899931301279
-0.49213287210657825, -0.4854321990121375, -0.7133370904344067
-0.49941867262951256, -0.5077114774450013, -0.6982984427239749
-0.5030739582913284, -0.5150222538870397, -0.6926480293293669
-0.5048470583383021, -0.5171552452988204, -0.6905996163801016
-0.5056934074678202, -0.5177936238162995, -0.6898081966699546
-0.5060956544887631, -0.5180102713293339, -0.6894745198338168
-0.5062883702533689, -0.5180958334374015, -0.6893224423972542
-0.5063807939221427, -0.5181338066338949, -0.6892465928578407
-0.5064224620445269, -0.5181485788767898, -0.6891974417128264
-0.5064349411646167, -0.5181288884575382, -0.6891279848128907
-0.5064324221729254, -0.5179552833340095, -0.6889001393876075
-0.5064757253669925, -0.5169342280785065, -0.6878521442066515
-0.506986210215166, -0.5110741913589663, -0.6823798395225328
-0.5104317761150415, -0.48008814232490876, -0.6547442994773626
-0.5256884708274586, -0.36123126840494557, -0.5521455811925085
-0.5642360427171051, -0.09275285768336641, -0.32721766072343345
-0.6171480234579385, 0.24321557110306324, -0.05364310450299369
-0.6589499393729138, 0.48901408590904755, 0.14124943989469715
-0.6803493170372232, 0.6067299922747513, 0.23223960972940755
-0.6884914175603629, 0.6486487022747257, 0.2637724918968676
-0.691132351868104, 0.6611828906381405, 0.2729025939427834
-0.6919654625848339, 0.6646749848916258, 0.27540093655752107
-0.6922535997412984, 0.6655834121114202, 0.27619455101661416
-0.6923803690697345, 0.6656086691265494, 0.27666514300850964
-0.69247405549858, 0.6650162883444629, 0.2773220903900803
-0.6926064776048472, 0.663446142114017, 0.27865575154465166
-0.6928708923400535, 0.6598017987877279, 0.2816074096317435
-0.6934532289140691, 0.6515228075252107, 0.28824634729782495
-0.6947405269582685, 0.6331644352636916, 0.30292116573054845
-0.6974095958947343, 0.5953344757933472, 0.33307299391519235
-0.7021828597863088, 0.528688913282655, 0.3859152353475194
-0.7090343334914745, 0.4361126270963181, 0.45847670659288214
-0.7168627520190822, 0.33797025653123286, 0.5332408015407418
-0.7246167341775878, 0.25554899252743646, 0.5914994272943911
-0.7322365032281297, 0.19508132679703255, 0.6268055322843965
-0.7399451008001938, 0.1518883275185138, 0.643284094280406
-0.7470778386708032, 0.1213386031349717, 0.6484377925492796
-0.7523276965166011, 0.10202009040204277, 0.648813397142877
-0.7552253578350807, 0.09208253362143495, 0.6481915716218459
-0.7564677813011854, 0.08786778056347483, 0.6477750006846266
-0.756908057665148, 0.08622271919535264, 0.647620302465053
-0.7570124578592707, 0.08554731078598461, 0.6476113641196763
-0.7569576871356788, 0.0852153812484957, 0.6476881947689107
-0.7567898177672829, 0.08498121640322844, 0.6478392131633036
-0.756485509285868, 0.08469587584805023, 0.64808578221515
-0.7559305774563116, 0.08410678268549394, 0.6484924301059001
-0.7547689589077692, 0.08241402917558885, 0.6492208337267387
-0.7519114790081897, 0.07692294480857974, 0.6506909547584866
-0.7443706533645975, 0.05978123441973572, 0.6539381399752857
-0.7260174725312207, 0.014153499825281397, 0.6609166151042599
-0.6903609453512635, -0.07885680297048633, 0.6734646816339986
-0.6415532356758074, -0.20957788243790673, 0.6898994970154122
-0.5992446668972341, -0.3246631367069371, 0.7038160077916626
-0.5775324148299086, -0.38443522576420935, 0.7108590037573231
-0.5707923094730118, -0.4032654385787967, 0.7130129404773771
-0.5693080359129797, -0.4075121051802847, 0.713474356130951
-0.5690107898974804, -0.40839202067145836, 0.7135614032176492
-0.5689462329263796, -0.4085970877992207, 0.713569681832268
-0.5689308599330245, -0.40868122205992397, 0.7135338286512304
-0.5689279756238048, -0.40881822723434513, 0.7133965780622107
-0.5689260418726043, -0.40925437256838126, 0.712928513803867
-0.5689051395092526, -0.41076370559864406, 0.7113374026971292
-0.5687828564094557, -0.41584435538442727, 0.7060881911772661
-0.5682197942051732, -0.4312856489342189, 0.6904823381511063
-0.5661899166408443, -0.4694742676808449, 0.6529631592297964
-0.5610588800770288, -0.5377679776642937, 0.5883250479191902
-0.5527167063828026, -0.6176417576550157, 0.5165072584438734
-0.5441148805087159, -0.6760049284801793, 0.46804085077109703
-0.5379761523031249, -0.7040990797918307, 0.4478786208754442
-0.5343946853005502, -0.7146868034830892, 0.44225951326258783
-0.5323956407120198, -0.7185947958661361, 0.4411838778918473
-0.531279974836779, -0.7202261210516466, 0.44100450036436745
-0.5308325109636477, -0.7209206518911772, 0.44043849823735953
-0.5313440679950744, -0.7208555701684226, 0.4382980614779511
-0.5339548838397896, -0.7194524630274353, 0.43197602165100074
-0.5415587507434702, -0.7150138378364144, 0.41528757102211245
-0.5598496415436094, -0.7041638562998709, 0.3761625027385433
-0.5957363516554519, -0.6828690890922018, 0.2998756578120553
-0.6494643351697422, -0.6512366048519691, 0.18551264471545023
-0.7075001807378399, -0.6177183002707989, 0.061009663240252796
-0.7514177281051898, -0.5935822074691746, -0.03531184320206548
-0.7733917864963201, -0.5836529233524164, -0.08742525464685362
-0.7766076629464377, -0.5863345566869216, -0.10280602762334494
-0.766403322002723, -0.5989826432823184, -0.09381687561247529
-0.7460335202605921, -0.6201712255791298, -0.06830959202997311
-0.7176950546412529, -0.648612448788952, -0.03093086624823978
-0.684538745602856, -0.6815679904328769, 0.01337060042560186
-0.6510472386142799, -0.7147566362564018, 0.05828779532242539
-0.6215269662655072, -0.7439786944274889, 0.09792609382858822
-0.5984403395414125, -0.7668208347804835, 0.12893817198703186
-0.44542490506505494, -0.2288832198542328, -0.8655580566702528
-0.4453968531884404, -0.22892733687796946, -0.8655525583085726
-0.44532565581656053, -0.229047190834103, -0.865534703837398
-0.4451441272069722, -0.229390578897744, -0.8654708077608622
-0.44470276742662973, -0.23044821447084352, -0.8652067739674246
-0.44379444261246115, -0.23399154521049076, -0.8639954129877315
-0.44271635342031374, -0.2461393709163431, -0.8586749187136883
-0.4439126045558913, -0.28107839916109273, -0.8409094121794608
-0.45163670438676934, -0.3481720473250254, -0.8036871832943319
-0.4656966624685913, -0.42499539838266426, -0.7580836564424077
-0.4801842965201753, -0.47836884434616556, -0.7236999443513819
-0.4910135396687711, -0.5034122975868587, -0.7052576562803214
-0.49795089051764885, -0.5127231535963904, -0.6967323544570599
-0.5020002316340721, -0.5159816854933044, -0.692818809331014
-0.504185032830332, -0.517200013361758, -0.6909702990514665
-0.5053042376009526, -0.5177082503884268, -0.690078480487807
-0.5058641718639945, -0.5179428826172541, -0.689638240837749
-0.5061380256335978, -0.5180636763891171, -0.6894104859098272
-0.5062570844978119, -0.5181385422728387, -0.6892729812631755
-0.5062693966814066, -0.5181942172438673, -0.68913526870888
-0.5061606356713717, -0.5181788357696487, -0.6888208323400663
-0.5058475486673337, -0.5175840822370986, -0.6875973438020352
-0.5052429251054308, -0.5130242104370742, -0.6816599573946863
-0.505321403787792, -0.4867743576332592, -0.653550011473919
-0.5126357169936749, -0.384767985956128, -0.5558896797573574
-0.5403472276790829, -0.1496051541052758, -0.34868233169789425
-0.5886983762807111, 0.16455336181532815, -0.09082564270199509
-0.6363266298686227, 0.42268446619849787, 0.10772105346161415
-0.6670708081993881, 0.5674378064672573, 0.21226392989946943
-0.6820112968430255, 0.6297132499714221, 0.2544102965376937
-0.6882127695478762, 0.6527290819758443, 0.2689857048359158
-0.6906691546105023, 0.6607588955088594, 0.2738962393715846
-0.691683628368615, 0.6633957668501576, 0.27585596391539546
-0.6921650794042484, 0.6637257795224689, 0.2771860443215234
-0.6924886808984035, 0.6623039386855326, 0.2790064715522886
-0.6928736824612812, 0.658269203754446, 0.2825514360384027
-0.693562498157275, 0.6490796343520213, 0.29006619144101603
-0.6949488481516729, 0.6294987182890986, 0.30583151621399945
-0.6976386208825728, 0.5910760331332079, 0.3366407980799171
-0.7022023165205015, 0.5259717699118946, 0.38872395460874287
-0.7084565437786002, 0.4376175340612596, 0.4591369485157224
-0.7151427528594966, 0.3457183943574589, 0.5316620079230914
-0.7210029998877379, 0.27118678586239875, 0.5887850969112934
-0.7259435600992238, 0.21981888550740822, 0.624668298129487
-0.7308340345856053, 0.18478471511962702, 0.6432532071654455
-0.7365416805565761, 0.15715473256317075, 0.6507220102048691
-0.7429988135244346, 0.13249342470488676, 0.6520505674488765
-0.7489591072659926, 0.11191727494267485, 0.6508377058307503
-0.7530961545187549, 0.0980658060956173, 0.6493725778543034
-0.7552426842446289, 0.09070737179028153, 0.6485133142274453
-0.7560791048784523, 0.0873573794291509, 0.6482173454440469
-0.7562345914279316, 0.08585808427289712, 0.6482667957667646
-0.7560157220649223, 0.08508437033521288, 0.6485455623812953
-0.7555069512916257, 0.0845299467997225, 0.6490395691271379
-0.7546566178479505, 0.08390339942767147, 0.6498092006236371
-0.7532645276105889, 0.08281816893187817, 0.650995473562528
-0.750818033565933, 0.08022621678415393, 0.6528704690684067
-0.7459800569730941, 0.07285831123122126, 0.6559702268355567
-0.7354998695321706, 0.05176091002193305, 0.6613207689211275
-0.7134888486718409, -0.0008401396274512957, 0.6703723840779228
-0.6752506296559526, -0.10159780579509534, 0.6836426384343959
-0.6279449584316689, -0.23344655998912703, 0.6981964259604947
-0.5912310917510992, -0.3397349225600172, 0.7084828264782019
-0.5746097975348824, -0.38976068664671193, 0.712657818212162
-0.5700293595372018, -0.4043908610314665, 0.713592339408371
-0.5690913276048017, -0.4076961039607174, 0.7137026711641234
-0.5689072023426713, -0.4084352864942665, 0.7136975145470666
-0.5688649791697098, -0.4086261537187505, 0.7136808078693493
-0.5688471956080274, -0.40871409456829694, 0.7136429908211757
-0.5688228246801965, -0.40886301635681216, 0.7135218970966472
-0.5687598053241043, -0.40933223385496564, 0.7131042202230357
-0.5685673750071653, -0.41094727311690366, 0.711649877839671
-0.5679586527364137, -0.4164017686067919, 0.7067287013357381
-0.5661320110878304, -0.43314452657040337, 0.6916563455089939
-0.5615126855391276, -0.47486806248783886, 0.6543545025325486
-0.5529396524789247, -0.5487785830922227, 0.5890880046561632
-0.5425393074340943, -0.6317807105219008, 0.5172124570887382
-0.5346389111095414, -0.6878764599278614, 0.47016368525943486
-0.5305626777256214, -0.7120776949797473, 0.45099737204037016
-0.5288143820695079, -0.7200692614753553, 0.4453222862827868
-0.528048382332863, -0.7225647943322936, 0.4438721692361554
-0.527689411687938, -0.7234052845284342, 0.4434573957998648
-0.5275974782987378, -0.7236809231849158, 0.44305534762015125
-0.5279113178434635, -0.7235873369649259, 0.44198159011655985
-0.5291930490693499, -0.7228646032303411, 0.4389138943803431
-0.5329764803919271, -0.7206166176167579, 0.43053672495993905
-0.542779169414046, -0.7147663400280223, 0.4093120933681576
-0.5645389653711095, -0.7018967185156116, 0.36240391377116393
-0.6030877508978466, -0.679579924466366, 0.2788276287489679
-0.6538702743415695, -0.6514669887962452, 0.16680316181406957
-0.7007472199655175, -0.6281408765471553, 0.059065366196306035
-0.7279193356939303, -0.6192451976578152, -0.011418237183355889
-0.7311736007152997, -0.6268651451033558, -0.03545935538316208
-0.7158111062110374, -0.6473460581065025, -0.023849700834831327
-0.6896034732451325, -0.6754663368949171, 0.00793853168626313
-0.6594116791687474, -0.7061492213454478, 0.047399779216797146
-0.6305269210237616, -0.7350071429013503, 0.08590157486132997
-0.6063113550974292, -0.759059034340817, 0.1183632018895279
-0.5880327914328708, -0.7771748329139502, 0.14290687040103506
-0.575319599232091, -0.7897635211085795, 0.15998566776671108
-0.44538770727292837, -0.22891763894667708, -0.8655642981045499
-0.4453183263647171, -0.22902004396338776, -0.8655541155236184
-0.4451416719708041, -0.22928732877661398, -0.8655249742002785
-0.44469041561333605, -0.23000356993995616, -0.8654342099267378
-0.4435730883426883, -0.2319670501622818, -0.8651166867257348
-0.4410708167141175, -0.2374406259423968, -0.8638797670475193
-0.4366329414522722, -0.252430613885478, -0.8591051990512476
-0.4319394174352782, -0.28814166065315805, -0.8443541274800354
-0.43228837935068354, -0.34985896073024103, -0.8140028820676337
-0.4415398570679353, -0.4188922427437956, -0.7749670758233542
-0.45684118852954686, -0.46921872586762076, -0.7415971142376045
-0.47265094659598034, -0.4957641657793522, -0.7195520891817154
-0.48554273328028164, -0.5077004028342972, -0.7063180250101393
-0.494488694025614, -0.5130463792141385, -0.6985677207733991
-0.499947945202143, -0.5155866077320096, -0.6941882698499969
-0.502987999310792, -0.5168503017168599, -0.6918176794803702
-0.504588825529211, -0.5175028118718905, -0.6905631827499664
-0.5053901663102636, -0.5178694628990804, -0.6898860067268877
-0.5057271410406012, -0.5181328894535507, -0.6894711128526051
-0.5057074781295846, -0.5184301791038062, -0.689090006707663
-0.5052070993661564, -0.5188956149414731, -0.6883993723713014
-0.5036800540050587, -0.5194560547898491, -0.6862764587828871
-0.4997006824332607, -0.5178623924878941, -0.6778797622589954
